<?xml version="1.0"?>
<opencv_storage>
<opencv_ml_svm>
  <format>3</format>
  <svmType>C_SVC</svmType>
  <kernel>
    <type>RBF</type>
    <gamma>1.</gamma></kernel>
  <C>1.</C>
  <term_criteria><iterations>100</iterations></term_criteria>
  <var_count>1024</var_count>
  <class_count>2</class_count>
  <class_labels type_id="opencv-matrix">
    <rows>2</rows>
    <cols>1</cols>
    <dt>i</dt>
    <data>
      0 1</data></class_labels>
  <sv_total>200</sv_total>
  <support_vectors>
    <_>
      151. 152. 154. 153. 152. 152. 151. 154. 153. 151. 155. 152. 152.
      153. 153. 152. 154. 152. 153. 153. 153. 153. 153. 153. 153. 154.
      152. 149. 151. 151. 152. 152. 150. 152. 151. 153. 151. 152. 152.
      153. 153. 150. 150. 153. 153. 153. 153. 156. 153. 153. 152. 153.
      153. 151. 153. 153. 153. 155. 153. 153. 153. 153. 153. 153. 152.
      153. 152. 151. 152. 152. 153. 152. 151. 153. 152. 153. 153. 152.
      155. 153. 153. 152. 152. 155. 153. 151. 151. 152. 152. 151. 152.
      152. 153. 152. 152. 151. 151. 153. 153. 153. 153. 153. 154. 152.
      153. 151. 151. 152. 152. 160. 152. 148. 152. 153. 153. 152. 154.
      153. 152. 153. 153. 153. 153. 153. 153. 153. 153. 152. 152. 149.
      154. 152. 153. 152. 153. 152. 153. 153. 152. 150. 153. 153. 152.
      151. 153. 148. 155. 152. 153. 153. 152. 153. 153. 155. 151. 152.
      155. 153. 154. 153. 153. 153. 151. 151. 153. 152. 155. 154. 149.
      152. 156. 153. 152. 147. 152. 155. 151. 152. 153. 155. 153. 152.
      153. 153. 155. 153. 153. 153. 153. 150. 153. 149. 157. 152. 150.
      152. 151. 155. 152. 156. 156. 151. 146. 150. 157. 156. 148. 141.
      144. 151. 151. 144. 146. 153. 155. 156. 151. 150. 154. 140. 152.
      158. 123. 160. 149. 159. 152. 149. 151. 154. 153. 152. 152. 159.
      147. 148. 151. 147. 153. 146. 156. 151. 158. 133. 152. 138. 152.
      157. 149. 155. 153. 145. 152. 153. 154. 152. 153. 156. 159. 151.
      153. 151. 156. 155. 162. 161. 159. 153. 152. 155. 153. 154. 152.
      157. 151. 157. 145. 154. 156. 154. 147. 153. 154. 154. 152. 152.
      152. 158. 155. 150. 150. 152. 158. 160. 157. 157. 154. 162. 159.
      152. 154. 154. 156. 153. 156. 153. 155. 152. 155. 155. 151. 152.
      157. 155. 157. 148. 151. 155. 150. 151. 157. 151. 154. 153. 148.
      155. 153. 159. 155. 154. 149. 149. 154. 149. 151. 149. 157. 152.
      151. 151. 155. 157. 149. 157. 157. 157. 153. 156. 152. 145. 148.
      152. 149. 159. 155. 150. 151. 155. 160. 152. 153. 158. 154. 142.
      150. 160. 158. 151. 144. 151. 145. 150. 157. 152. 158. 148. 156.
      142. 140. 152. 155. 148. 147. 152. 154. 153. 155. 155. 155. 147.
      156. 150. 140. 149. 142. 134. 130. 157. 153. 143. 159. 151. 149.
      149. 146. 147. 154. 159. 152. 156. 161. 154. 158. 149. 157. 156.
      158. 158. 149. 162. 160. 160. 164. 160. 158. 161. 161. 165. 152.
      156. 147. 163. 164. 164. 162. 164. 171. 159. 154. 168. 179. 155.
      170. 163. 161. 160. 182. 171. 162. 164. 171. 174. 168. 188. 169.
      172. 158. 183. 135. 90. 96. 24. 40. 201. 212. 202. 209. 193. 116.
      109. 106. 88. 98. 92. 108. 91. 98. 92. 117. 80. 84. 101. 98. 166.
      155. 126. 83. 160. 156. 146. 138. 121. 107. 164. 114. 136. 117.
      132. 106. 159. 124. 135. 134. 110. 94. 102. 106. 113. 119. 128.
      134. 138. 151. 152. 154. 153. 152. 152. 151. 154. 153. 151. 155.
      152. 152. 153. 153. 152. 154. 152. 153. 153. 153. 153. 153. 153.
      153. 154. 152. 149. 151. 151. 152. 152. 150. 152. 151. 153. 151.
      152. 152. 153. 153. 150. 150. 153. 153. 153. 153. 156. 153. 153.
      152. 153. 153. 151. 153. 153. 153. 155. 153. 153. 153. 153. 153.
      153. 152. 153. 152. 151. 152. 152. 153. 152. 151. 153. 152. 153.
      153. 152. 155. 153. 153. 152. 152. 155. 153. 151. 151. 152. 152.
      151. 152. 152. 153. 152. 152. 151. 151. 153. 153. 153. 153. 153.
      154. 152. 153. 151. 151. 152. 152. 160. 152. 148. 152. 153. 153.
      152. 154. 153. 152. 153. 153. 153. 153. 153. 153. 153. 153. 152.
      152. 149. 154. 152. 153. 152. 153. 152. 153. 153. 152. 150. 153.
      153. 152. 151. 153. 148. 155. 152. 153. 153. 152. 153. 153. 155.
      151. 152. 155. 153. 154. 153. 153. 153. 151. 151. 153. 152. 155.
      154. 149. 152. 156. 153. 152. 147. 152. 155. 151. 152. 153. 155.
      153. 152. 153. 153. 155. 153. 153. 153. 153. 150. 153. 149. 157.
      152. 150. 152. 151. 155. 152. 156. 156. 151. 146. 150. 157. 156.
      148. 141. 144. 151. 151. 144. 146. 153. 155. 156. 151. 150. 154.
      140. 152. 158. 123. 160. 149. 159. 152. 149. 151. 154. 153. 152.
      152. 159. 147. 148. 151. 147. 153. 146. 156. 151. 158. 133. 152.
      138. 152. 157. 149. 155. 153. 145. 152. 153. 154. 152. 153. 156.
      159. 151. 153. 151. 156. 155. 162. 161. 159. 153. 152. 155. 153.
      154. 152. 157. 151. 157. 145. 154. 156. 154. 147. 153. 154. 154.
      152. 152. 152. 158. 155. 150. 150. 152. 158. 160. 157. 157. 154.
      162. 159. 152. 154. 154. 156. 153. 156. 153. 155. 152. 155. 155.
      151. 152. 157. 155. 157. 148. 151. 155. 150. 151. 157. 151. 154.
      153. 148. 155. 153. 159. 155. 154. 149. 149. 154. 149. 151. 149.
      157. 152. 151. 151. 155. 157. 149. 157. 157. 157. 153. 156. 152.
      145. 148. 152. 149. 159. 155. 150. 151. 155. 160. 152. 153. 158.
      154. 142. 150. 160. 158. 151. 144. 151. 145. 150. 157. 152. 158.
      148. 156. 142. 140. 152. 155. 148. 147. 152. 154. 153. 155. 155.
      155. 147. 156. 150. 140. 149. 142. 134. 130. 157. 153. 143. 159.
      151. 149. 149. 146. 147. 154. 159. 152. 156. 161. 154. 158. 149.
      157. 156. 158. 158. 149. 162. 160. 160. 164. 160. 158. 161. 161.
      165. 152. 156. 147. 163. 164. 164. 162. 164. 171. 159. 154. 168.
      179. 155. 170. 163. 161. 160. 182. 171. 162. 164. 171. 174. 168.
      188. 169. 172. 158. 183. 135. 90. 96. 24. 40. 201. 212. 202. 209.
      193. 116. 109. 106. 88. 98. 92. 108. 91. 98. 92. 117. 80. 84. 101.
      98. 166. 155. 126. 83. 160. 156. 146. 138. 121. 107. 164. 114.
      136. 117. 132. 106. 159. 124. 135. 134. 110. 94. 102. 106. 113.
      119. 128. 134. 138.</_>
    <_>
      141. 141. 148. 145. 145. 157. 168. 183. 187. 192. 195. 206. 211.
      208. 208. 205. 205. 205. 202. 202. 202. 202. 201. 199. 199. 199.
      198. 197. 197. 197. 197. 197. 197. 197. 197. 197. 197. 196. 196.
      197. 197. 197. 197. 197. 197. 197. 205. 194. 198. 134. 135. 124.
      192. 186. 193. 182. 193. 192. 193. 193. 193. 194. 194. 194. 194.
      194. 194. 191. 188. 187. 185. 182. 182. 182. 182. 182. 182. 182.
      179. 179. 179. 179. 176. 176. 176. 176. 176. 176. 176. 175. 175.
      176. 176. 176. 176. 175. 175. 176. 176. 176. 176. 176. 176. 176.
      178. 176. 176. 176. 174. 176. 175. 176. 165. 177. 175. 175. 173.
      176. 175. 173. 173. 171. 172. 172. 173. 172. 167. 171. 173. 173.
      170. 171. 168. 176. 169. 167. 175. 171. 171. 171. 167. 165. 171.
      161. 164. 169. 174. 174. 174. 168. 166. 162. 168. 164. 172. 179.
      174. 171. 174. 172. 168. 171. 170. 168. 170. 170. 168. 168. 163.
      162. 168. 164. 162. 162. 175. 169. 178. 178. 176. 174. 171. 166.
      163. 159. 155. 128. 138. 199. 193. 174. 155. 176. 179. 175. 168.
      166. 154. 174. 171. 169. 158. 171. 184. 184. 179. 180. 176. 174.
      179. 184. 176. 176. 177. 172. 169. 175. 179. 177. 179. 171. 175.
      176. 170. 185. 184. 168. 179. 176. 176. 178. 179. 179. 182. 182.
      182. 182. 182. 182. 184. 184. 185. 185. 187. 185. 185. 185. 185.
      184. 184. 184. 184. 182. 182. 182. 182. 182. 181. 188. 191. 190.
      188. 188. 187. 187. 187. 191. 188. 188. 185. 184. 184. 184. 185.
      185. 185. 185. 185. 184. 184. 181. 192. 195. 156. 156. 174. 181.
      193. 177. 183. 167. 187. 170. 181. 184. 179. 175. 169. 146. 164.
      155. 179. 172. 158. 176. 172. 180. 171. 181. 186. 174. 171. 169.
      177. 183. 172. 166. 120. 170. 167. 164. 169. 165. 175. 173. 184.
      177. 171. 178. 153. 176. 163. 169. 174. 194. 159. 156. 184. 175.
      169. 150. 151. 171. 166. 167. 165. 161. 164. 164. 162. 164. 165.
      164. 161. 162. 163. 162. 171. 162. 152. 165. 173. 167. 175. 159.
      158. 164. 165. 164. 158. 158. 171. 169. 162. 159. 157. 161. 165.
      162. 162. 160. 155. 164. 167. 162. 162. 159. 159. 153. 160. 157.
      154. 151. 156. 153. 169. 168. 158. 168. 172. 161. 159. 163. 158.
      158. 180. 165. 160. 160. 156. 153. 147. 171. 151. 143. 169. 160.
      162. 158. 155. 162. 165. 157. 158. 145. 112. 191. 120. 166. 130.
      131. 110. 179. 154. 192. 172. 144. 129. 184. 180. 194. 161. 141.
      175. 131. 171. 145. 163. 135. 109. 208. 135. 187. 191. 113. 135.
      54. 192. 199. 173. 148. 186. 175. 179. 139. 186. 197. 91. 217.
      197. 198. 171. 178. 161. 144. 171. 150. 131. 76. 90. 192. 206.
      198. 200. 167. 156. 186. 138. 154. 82. 102. 171. 200. 108. 193.
      188. 198. 170. 204. 181. 202. 71. 175. 77. 156. 172. 184. 104.
      152. 224. 191. 202. 120. 141. 141. 148. 145. 145. 157. 168. 183.
      187. 192. 195. 206. 211. 208. 208. 205. 205. 205. 202. 202. 202.
      202. 201. 199. 199. 199. 198. 197. 197. 197. 197. 197. 197. 197.
      197. 197. 197. 196. 196. 197. 197. 197. 197. 197. 197. 197. 205.
      194. 198. 134. 135. 124. 192. 186. 193. 182. 193. 192. 193. 193.
      193. 194. 194. 194. 194. 194. 194. 191. 188. 187. 185. 182. 182.
      182. 182. 182. 182. 182. 179. 179. 179. 179. 176. 176. 176. 176.
      176. 176. 176. 175. 175. 176. 176. 176. 176. 175. 175. 176. 176.
      176. 176. 176. 176. 176. 178. 176. 176. 176. 174. 176. 175. 176.
      165. 177. 175. 175. 173. 176. 175. 173. 173. 171. 172. 172. 173.
      172. 167. 171. 173. 173. 170. 171. 168. 176. 169. 167. 175. 171.
      171. 171. 167. 165. 171. 161. 164. 169. 174. 174. 174. 168. 166.
      162. 168. 164. 172. 179. 174. 171. 174. 172. 168. 171. 170. 168.
      170. 170. 168. 168. 163. 162. 168. 164. 162. 162. 175. 169. 178.
      178. 176. 174. 171. 166. 163. 159. 155. 128. 138. 199. 193. 174.
      155. 176. 179. 175. 168. 166. 154. 174. 171. 169. 158. 171. 184.
      184. 179. 180. 176. 174. 179. 184. 176. 176. 177. 172. 169. 175.
      179. 177. 179. 171. 175. 176. 170. 185. 184. 168. 179. 176. 176.
      178. 179. 179. 182. 182. 182. 182. 182. 182. 184. 184. 185. 185.
      187. 185. 185. 185. 185. 184. 184. 184. 184. 182. 182. 182. 182.
      182. 181. 188. 191. 190. 188. 188. 187. 187. 187. 191. 188. 188.
      185. 184. 184. 184. 185. 185. 185. 185. 185. 184. 184. 181. 192.
      195. 156. 156. 174. 181. 193. 177. 183. 167. 187. 170. 181. 184.
      179. 175. 169. 146. 164. 155. 179. 172. 158. 176. 172. 180. 171.
      181. 186. 174. 171. 169. 177. 183. 172. 166. 120. 170. 167. 164.
      169. 165. 175. 173. 184. 177. 171. 178. 153. 176. 163. 169. 174.
      194. 159. 156. 184. 175. 169. 150. 151. 171. 166. 167. 165. 161.
      164. 164. 162. 164. 165. 164. 161. 162. 163. 162. 171. 162. 152.
      165. 173. 167. 175. 159. 158. 164. 165. 164. 158. 158. 171. 169.
      162. 159. 157. 161. 165. 162. 162. 160. 155. 164. 167. 162. 162.
      159. 159. 153. 160. 157. 154. 151. 156. 153. 169. 168. 158. 168.
      172. 161. 159. 163. 158. 158. 180. 165. 160. 160. 156. 153. 147.
      171. 151. 143. 169. 160. 162. 158. 155. 162. 165. 157. 158. 145.
      112. 191. 120. 166. 130. 131. 110. 179. 154. 192. 172. 144. 129.
      184. 180. 194. 161. 141. 175. 131. 171. 145. 163. 135. 109. 208.
      135. 187. 191. 113. 135. 54. 192. 199. 173. 148. 186. 175. 179.
      139. 186. 197. 91. 217. 197. 198. 171. 178. 161. 144. 171. 150.
      131. 76. 90. 192. 206. 198. 200. 167. 156. 186. 138. 154. 82. 102.
      171. 200. 108. 193. 188. 198. 170. 204. 181. 202. 71. 175. 77.
      156. 172. 184. 104. 152. 224. 191. 202. 120.</_>
    <_>
      196. 66. 146. 87. 133. 101. 159. 158. 109. 119. 138. 146. 132.
      119. 144. 141. 141. 142. 146. 151. 157. 165. 195. 213. 196. 186.
      128. 99. 147. 151. 138. 133. 130. 128. 127. 125. 124. 122. 120.
      120. 131. 125. 92. 98. 103. 136. 112. 156. 115. 146. 201. 174.
      145. 103. 147. 61. 102. 106. 168. 73. 90. 201. 129. 129. 107. 94.
      150. 66. 69. 66. 70. 61. 92. 117. 109. 98. 101. 145. 122. 140.
      132. 148. 133. 123. 145. 172. 171. 162. 163. 169. 151. 101. 72.
      72. 75. 73. 76. 77. 142. 139. 145. 149. 86. 76. 73. 85. 87. 110.
      123. 124. 115. 115. 84. 92. 100. 95. 103. 108. 112. 97. 98. 102.
      92. 87. 70. 80. 99. 101. 96. 101. 102. 101. 98. 106. 115. 85. 113.
      128. 133. 134. 159. 136. 156. 147. 148. 143. 150. 161. 62. 104.
      151. 118. 161. 152. 12. 37. 70. 72. 132. 51. 74. 83. 120. 127.
      136. 136. 146. 109. 170. 164. 131. 146. 105. 115. 151. 145. 98.
      138. 163. 190. 128. 148. 148. 144. 96. 113. 136. 130. 155. 180.
      174. 189. 139. 169. 96. 174. 117. 96. 51. 87. 87. 85. 85. 31. 83.
      87. 101. 109. 68. 61. 106. 50. 41. 64. 73. 184. 136. 93. 28. 156.
      165. 186. 184. 186. 195. 165. 156. 198. 192. 181. 192. 202. 194.
      179. 170. 182. 143. 163. 148. 133. 164. 108. 161. 131. 97. 162.
      176. 160. 166. 176. 91. 162. 170. 150. 145. 128. 166. 138. 158.
      150. 117. 121. 141. 161. 159. 150. 164. 167. 158. 152. 159. 126.
      147. 145. 129. 119. 157. 141. 151. 143. 150. 124. 149. 178. 146.
      117. 149. 148. 163. 164. 154. 121. 140. 144. 144. 113. 153. 158.
      167. 157. 123. 136. 111. 127. 161. 152. 139. 174. 134. 164. 133.
      165. 140. 136. 145. 155. 145. 147. 163. 169. 140. 135. 141. 124.
      107. 145. 130. 141. 131. 149. 123. 140. 121. 126. 141. 169. 174.
      154. 147. 138. 121. 135. 154. 128. 149. 146. 149. 113. 111. 161.
      161. 180. 145. 128. 153. 132. 139. 153. 136. 153. 166. 144. 150.
      160. 157. 157. 134. 171. 160. 171. 172. 138. 154. 164. 147. 146.
      146. 130. 134. 160. 153. 142. 155. 175. 154. 143. 155. 167. 133.
      128. 175. 113. 178. 165. 166. 158. 169. 153. 140. 143. 150. 147.
      113. 124. 152. 145. 171. 170. 156. 142. 168. 163. 128. 135. 136.
      161. 165. 160. 172. 147. 167. 154. 157. 153. 153. 147. 142. 148.
      154. 148. 129. 153. 163. 145. 154. 173. 142. 152. 160. 170. 156.
      169. 155. 158. 169. 162. 150. 137. 158. 159. 162. 153. 144. 155.
      149. 156. 162. 162. 162. 159. 160. 158. 159. 162. 164. 164. 164.
      165. 161. 167. 162. 164. 162. 162. 161. 162. 160. 162. 159. 159.
      158. 158. 161. 161. 162. 162. 159. 162. 161. 164. 162. 159. 160.
      159. 157. 157. 158. 155. 158. 155. 158. 161. 159. 159. 158. 158.
      158. 158. 159. 158. 160. 162. 196. 66. 146. 87. 133. 101. 159.
      158. 109. 119. 138. 146. 132. 119. 144. 141. 141. 142. 146. 151.
      157. 165. 195. 213. 196. 186. 128. 99. 147. 151. 138. 133. 130.
      128. 127. 125. 124. 122. 120. 120. 131. 125. 92. 98. 103. 136.
      112. 156. 115. 146. 201. 174. 145. 103. 147. 61. 102. 106. 168.
      73. 90. 201. 129. 129. 107. 94. 150. 66. 69. 66. 70. 61. 92. 117.
      109. 98. 101. 145. 122. 140. 132. 148. 133. 123. 145. 172. 171.
      162. 163. 169. 151. 101. 72. 72. 75. 73. 76. 77. 142. 139. 145.
      149. 86. 76. 73. 85. 87. 110. 123. 124. 115. 115. 84. 92. 100. 95.
      103. 108. 112. 97. 98. 102. 92. 87. 70. 80. 99. 101. 96. 101. 102.
      101. 98. 106. 115. 85. 113. 128. 133. 134. 159. 136. 156. 147.
      148. 143. 150. 161. 62. 104. 151. 118. 161. 152. 12. 37. 70. 72.
      132. 51. 74. 83. 120. 127. 136. 136. 146. 109. 170. 164. 131. 146.
      105. 115. 151. 145. 98. 138. 163. 190. 128. 148. 148. 144. 96.
      113. 136. 130. 155. 180. 174. 189. 139. 169. 96. 174. 117. 96. 51.
      87. 87. 85. 85. 31. 83. 87. 101. 109. 68. 61. 106. 50. 41. 64. 73.
      184. 136. 93. 28. 156. 165. 186. 184. 186. 195. 165. 156. 198.
      192. 181. 192. 202. 194. 179. 170. 182. 143. 163. 148. 133. 164.
      108. 161. 131. 97. 162. 176. 160. 166. 176. 91. 162. 170. 150.
      145. 128. 166. 138. 158. 150. 117. 121. 141. 161. 159. 150. 164.
      167. 158. 152. 159. 126. 147. 145. 129. 119. 157. 141. 151. 143.
      150. 124. 149. 178. 146. 117. 149. 148. 163. 164. 154. 121. 140.
      144. 144. 113. 153. 158. 167. 157. 123. 136. 111. 127. 161. 152.
      139. 174. 134. 164. 133. 165. 140. 136. 145. 155. 145. 147. 163.
      169. 140. 135. 141. 124. 107. 145. 130. 141. 131. 149. 123. 140.
      121. 126. 141. 169. 174. 154. 147. 138. 121. 135. 154. 128. 149.
      146. 149. 113. 111. 161. 161. 180. 145. 128. 153. 132. 139. 153.
      136. 153. 166. 144. 150. 160. 157. 157. 134. 171. 160. 171. 172.
      138. 154. 164. 147. 146. 146. 130. 134. 160. 153. 142. 155. 175.
      154. 143. 155. 167. 133. 128. 175. 113. 178. 165. 166. 158. 169.
      153. 140. 143. 150. 147. 113. 124. 152. 145. 171. 170. 156. 142.
      168. 163. 128. 135. 136. 161. 165. 160. 172. 147. 167. 154. 157.
      153. 153. 147. 142. 148. 154. 148. 129. 153. 163. 145. 154. 173.
      142. 152. 160. 170. 156. 169. 155. 158. 169. 162. 150. 137. 158.
      159. 162. 153. 144. 155. 149. 156. 162. 162. 162. 159. 160. 158.
      159. 162. 164. 164. 164. 165. 161. 167. 162. 164. 162. 162. 161.
      162. 160. 162. 159. 159. 158. 158. 161. 161. 162. 162. 159. 162.
      161. 164. 162. 159. 160. 159. 157. 157. 158. 155. 158. 155. 158.
      161. 159. 159. 158. 158. 158. 158. 159. 158. 160. 162.</_>
    <_>
      157. 156. 156. 156. 150. 159. 157. 158. 160. 156. 156. 156. 156.
      159. 158. 156. 156. 156. 154. 152. 156. 157. 152. 156. 161. 158.
      161. 160. 158. 159. 155. 159. 165. 164. 166. 148. 154. 150. 160.
      160. 157. 155. 126. 159. 159. 151. 161. 152. 140. 150. 165. 153.
      141. 143. 129. 134. 145. 122. 154. 164. 164. 155. 145. 159. 158.
      157. 155. 154. 155. 153. 152. 158. 150. 152. 154. 158. 156. 152.
      157. 152. 158. 158. 157. 152. 156. 156. 156. 156. 155. 158. 150.
      152. 155. 152. 161. 136. 141. 157. 157. 158. 157. 156. 156. 159.
      158. 156. 153. 155. 152. 152. 148. 149. 152. 134. 155. 150. 152.
      147. 150. 153. 151. 153. 155. 153. 155. 155. 155. 151. 162. 159.
      158. 159. 160. 151. 143. 140. 157. 153. 159. 154. 132. 141. 158.
      158. 161. 158. 155. 142. 148. 154. 153. 155. 153. 147. 149. 154.
      156. 159. 159. 164. 162. 157. 154. 142. 151. 140. 147. 152. 133.
      148. 149. 153. 166. 152. 151. 161. 159. 154. 158. 159. 151. 154.
      149. 152. 158. 152. 153. 154. 151. 156. 156. 157. 161. 161. 158.
      158. 163. 161. 162. 158. 156. 155. 159. 163. 164. 160. 165. 163.
      165. 156. 155. 159. 154. 166. 171. 166. 164. 170. 161. 166. 165.
      152. 151. 158. 162. 150. 156. 157. 162. 158. 162. 157. 158. 159.
      160. 162. 158. 159. 162. 157. 163. 160. 156. 156. 159. 165. 162.
      162. 160. 162. 158. 161. 162. 160. 161. 156. 163. 161. 161. 160.
      158. 155. 160. 158. 160. 158. 158. 159. 156. 158. 159. 161. 165.
      164. 161. 163. 165. 166. 165. 164. 166. 164. 162. 162. 164. 160.
      158. 162. 163. 158. 157. 159. 155. 155. 157. 154. 159. 155. 154.
      154. 160. 157. 155. 164. 164. 164. 166. 169. 167. 166. 169. 167.
      164. 166. 168. 149. 147. 134. 174. 142. 138. 168. 170. 110. 146.
      126. 121. 180. 159. 158. 148. 159. 170. 155. 165. 160. 151. 160.
      159. 163. 166. 166. 157. 159. 162. 164. 166. 145. 157. 149. 171.
      162. 146. 122. 109. 149. 139. 143. 177. 150. 155. 163. 157. 156.
      158. 162. 161. 159. 156. 158. 156. 154. 159. 159. 159. 160. 159.
      160. 163. 157. 158. 155. 156. 155. 156. 161. 156. 160. 159. 158.
      158. 156. 159. 158. 161. 161. 159. 159. 161. 161. 158. 163. 154.
      154. 155. 153. 154. 151. 149. 153. 153. 156. 157. 157. 156. 156.
      155. 150. 150. 146. 148. 148. 150. 148. 147. 149. 149. 146. 159.
      152. 150. 153. 150. 150. 142. 157. 156. 147. 158. 154. 154. 159.
      167. 157. 156. 155. 144. 155. 152. 154. 152. 155. 154. 146. 149.
      129. 162. 155. 151. 158. 158. 156. 148. 147. 159. 145. 137. 159.
      159. 156. 166. 152. 147. 156. 170. 146. 150. 125. 128. 123. 129.
      125. 146. 138. 154. 146. 138. 128. 133. 145. 159. 103. 67. 145.
      110. 132. 141. 130. 130. 147. 134. 151. 139. 78. 117. 129. 130.
      156. 132. 136. 137. 132. 157. 156. 156. 156. 150. 159. 157. 158.
      160. 156. 156. 156. 156. 159. 158. 156. 156. 156. 154. 152. 156.
      157. 152. 156. 161. 158. 161. 160. 158. 159. 155. 159. 165. 164.
      166. 148. 154. 150. 160. 160. 157. 155. 126. 159. 159. 151. 161.
      152. 140. 150. 165. 153. 141. 143. 129. 134. 145. 122. 154. 164.
      164. 155. 145. 159. 158. 157. 155. 154. 155. 153. 152. 158. 150.
      152. 154. 158. 156. 152. 157. 152. 158. 158. 157. 152. 156. 156.
      156. 156. 155. 158. 150. 152. 155. 152. 161. 136. 141. 157. 157.
      158. 157. 156. 156. 159. 158. 156. 153. 155. 152. 152. 148. 149.
      152. 134. 155. 150. 152. 147. 150. 153. 151. 153. 155. 153. 155.
      155. 155. 151. 162. 159. 158. 159. 160. 151. 143. 140. 157. 153.
      159. 154. 132. 141. 158. 158. 161. 158. 155. 142. 148. 154. 153.
      155. 153. 147. 149. 154. 156. 159. 159. 164. 162. 157. 154. 142.
      151. 140. 147. 152. 133. 148. 149. 153. 166. 152. 151. 161. 159.
      154. 158. 159. 151. 154. 149. 152. 158. 152. 153. 154. 151. 156.
      156. 157. 161. 161. 158. 158. 163. 161. 162. 158. 156. 155. 159.
      163. 164. 160. 165. 163. 165. 156. 155. 159. 154. 166. 171. 166.
      164. 170. 161. 166. 165. 152. 151. 158. 162. 150. 156. 157. 162.
      158. 162. 157. 158. 159. 160. 162. 158. 159. 162. 157. 163. 160.
      156. 156. 159. 165. 162. 162. 160. 162. 158. 161. 162. 160. 161.
      156. 163. 161. 161. 160. 158. 155. 160. 158. 160. 158. 158. 159.
      156. 158. 159. 161. 165. 164. 161. 163. 165. 166. 165. 164. 166.
      164. 162. 162. 164. 160. 158. 162. 163. 158. 157. 159. 155. 155.
      157. 154. 159. 155. 154. 154. 160. 157. 155. 164. 164. 164. 166.
      169. 167. 166. 169. 167. 164. 166. 168. 149. 147. 134. 174. 142.
      138. 168. 170. 110. 146. 126. 121. 180. 159. 158. 148. 159. 170.
      155. 165. 160. 151. 160. 159. 163. 166. 166. 157. 159. 162. 164.
      166. 145. 157. 149. 171. 162. 146. 122. 109. 149. 139. 143. 177.
      150. 155. 163. 157. 156. 158. 162. 161. 159. 156. 158. 156. 154.
      159. 159. 159. 160. 159. 160. 163. 157. 158. 155. 156. 155. 156.
      161. 156. 160. 159. 158. 158. 156. 159. 158. 161. 161. 159. 159.
      161. 161. 158. 163. 154. 154. 155. 153. 154. 151. 149. 153. 153.
      156. 157. 157. 156. 156. 155. 150. 150. 146. 148. 148. 150. 148.
      147. 149. 149. 146. 159. 152. 150. 153. 150. 150. 142. 157. 156.
      147. 158. 154. 154. 159. 167. 157. 156. 155. 144. 155. 152. 154.
      152. 155. 154. 146. 149. 129. 162. 155. 151. 158. 158. 156. 148.
      147. 159. 145. 137. 159. 159. 156. 166. 152. 147. 156. 170. 146.
      150. 125. 128. 123. 129. 125. 146. 138. 154. 146. 138. 128. 133.
      145. 159. 103. 67. 145. 110. 132. 141. 130. 130. 147. 134. 151.
      139. 78. 117. 129. 130. 156. 132. 136. 137. 132.</_>
    <_>
      200. 111. 83. 142. 149. 203. 192. 184. 187. 180. 115. 110. 113.
      107. 103. 76. 130. 160. 110. 109. 48. 73. 96. 57. 93. 149. 115.
      119. 142. 141. 161. 150. 155. 168. 201. 210. 221. 209. 203. 201.
      198. 205. 202. 201. 196. 189. 188. 185. 203. 207. 207. 208. 217.
      205. 206. 192. 201. 214. 191. 209. 221. 197. 172. 160. 213. 211.
      213. 216. 182. 207. 191. 209. 195. 212. 204. 190. 174. 210. 217.
      203. 192. 215. 200. 201. 210. 208. 215. 218. 195. 205. 195. 208.
      198. 197. 174. 196. 201. 210. 202. 203. 168. 188. 191. 179. 200.
      198. 173. 179. 208. 183. 182. 171. 187. 183. 188. 173. 178. 179.
      182. 177. 190. 190. 171. 130. 187. 179. 173. 154. 152. 187. 188.
      166. 180. 177. 179. 167. 161. 195. 179. 175. 180. 179. 175. 176.
      167. 162. 187. 174. 195. 189. 180. 182. 174. 170. 170. 175. 171.
      174. 176. 175. 176. 178. 181. 179. 179. 181. 179. 178. 176. 176.
      176. 176. 176. 173. 165. 185. 184. 184. 182. 184. 184. 184. 179.
      175. 174. 184. 179. 175. 177. 176. 178. 179. 178. 178. 179. 179.
      181. 179. 179. 178. 182. 179. 176. 175. 176. 178. 180. 161. 169.
      180. 185. 184. 184. 188. 186. 182. 181. 185. 177. 176. 194. 184.
      171. 173. 188. 192. 185. 194. 182. 157. 189. 190. 194. 197. 204.
      182. 209. 189. 193. 182. 172. 165. 188. 191. 180. 204. 213. 206.
      189. 207. 201. 208. 204. 197. 204. 207. 193. 183. 184. 186. 168.
      183. 177. 181. 172. 181. 181. 181. 176. 177. 178. 175. 175. 177.
      182. 181. 175. 176. 170. 169. 166. 169. 157. 171. 171. 168. 179.
      157. 167. 160. 173. 169. 171. 167. 164. 164. 168. 169. 163. 169.
      154. 159. 161. 156. 159. 162. 164. 162. 164. 161. 161. 162. 165.
      168. 167. 168. 167. 161. 162. 165. 168. 170. 168. 170. 171. 173.
      173. 175. 175. 176. 175. 175. 176. 178. 179. 178. 178. 178. 178.
      178. 179. 179. 181. 182. 182. 182. 182. 182. 182. 181. 181. 182.
      182. 182. 182. 184. 184. 185. 185. 185. 185. 185. 185. 185. 185.
      187. 185. 185. 185. 187. 187. 185. 187. 185. 185. 185. 188. 188.
      188. 188. 188. 188. 188. 187. 188. 185. 181. 169. 194. 203. 184.
      191. 201. 191. 185. 185. 200. 177. 191. 221. 188. 169. 212. 186.
      199. 202. 181. 174. 148. 152. 124. 89. 42. 39. 64. 81. 127. 96.
      94. 111. 120. 125. 157. 107. 144. 132. 92. 137. 155. 143. 68. 170.
      147. 83. 123. 107. 84. 91. 81. 126. 84. 153. 93. 105. 98. 139.
      165. 123. 102. 86. 74. 56. 152. 55. 110. 155. 108. 146. 90. 95.
      190. 113. 90. 145. 135. 140. 142. 140. 139. 140. 129. 127. 125.
      103. 124. 123. 140. 128. 151. 111. 63. 139. 92. 93. 120. 126. 121.
      60. 72. 146. 142. 153. 71. 99. 96. 105. 84. 132. 106. 122. 132.
      121. 96. 130. 138. 127. 87. 128. 91. 88. 123. 131. 200. 111. 83.
      142. 149. 203. 192. 184. 187. 180. 115. 110. 113. 107. 103. 76.
      130. 160. 110. 109. 48. 73. 96. 57. 93. 149. 115. 119. 142. 141.
      161. 150. 155. 168. 201. 210. 221. 209. 203. 201. 198. 205. 202.
      201. 196. 189. 188. 185. 203. 207. 207. 208. 217. 205. 206. 192.
      201. 214. 191. 209. 221. 197. 172. 160. 213. 211. 213. 216. 182.
      207. 191. 209. 195. 212. 204. 190. 174. 210. 217. 203. 192. 215.
      200. 201. 210. 208. 215. 218. 195. 205. 195. 208. 198. 197. 174.
      196. 201. 210. 202. 203. 168. 188. 191. 179. 200. 198. 173. 179.
      208. 183. 182. 171. 187. 183. 188. 173. 178. 179. 182. 177. 190.
      190. 171. 130. 187. 179. 173. 154. 152. 187. 188. 166. 180. 177.
      179. 167. 161. 195. 179. 175. 180. 179. 175. 176. 167. 162. 187.
      174. 195. 189. 180. 182. 174. 170. 170. 175. 171. 174. 176. 175.
      176. 178. 181. 179. 179. 181. 179. 178. 176. 176. 176. 176. 176.
      173. 165. 185. 184. 184. 182. 184. 184. 184. 179. 175. 174. 184.
      179. 175. 177. 176. 178. 179. 178. 178. 179. 179. 181. 179. 179.
      178. 182. 179. 176. 175. 176. 178. 180. 161. 169. 180. 185. 184.
      184. 188. 186. 182. 181. 185. 177. 176. 194. 184. 171. 173. 188.
      192. 185. 194. 182. 157. 189. 190. 194. 197. 204. 182. 209. 189.
      193. 182. 172. 165. 188. 191. 180. 204. 213. 206. 189. 207. 201.
      208. 204. 197. 204. 207. 193. 183. 184. 186. 168. 183. 177. 181.
      172. 181. 181. 181. 176. 177. 178. 175. 175. 177. 182. 181. 175.
      176. 170. 169. 166. 169. 157. 171. 171. 168. 179. 157. 167. 160.
      173. 169. 171. 167. 164. 164. 168. 169. 163. 169. 154. 159. 161.
      156. 159. 162. 164. 162. 164. 161. 161. 162. 165. 168. 167. 168.
      167. 161. 162. 165. 168. 170. 168. 170. 171. 173. 173. 175. 175.
      176. 175. 175. 176. 178. 179. 178. 178. 178. 178. 178. 179. 179.
      181. 182. 182. 182. 182. 182. 182. 181. 181. 182. 182. 182. 182.
      184. 184. 185. 185. 185. 185. 185. 185. 185. 185. 187. 185. 185.
      185. 187. 187. 185. 187. 185. 185. 185. 188. 188. 188. 188. 188.
      188. 188. 187. 188. 185. 181. 169. 194. 203. 184. 191. 201. 191.
      185. 185. 200. 177. 191. 221. 188. 169. 212. 186. 199. 202. 181.
      174. 148. 152. 124. 89. 42. 39. 64. 81. 127. 96. 94. 111. 120.
      125. 157. 107. 144. 132. 92. 137. 155. 143. 68. 170. 147. 83. 123.
      107. 84. 91. 81. 126. 84. 153. 93. 105. 98. 139. 165. 123. 102.
      86. 74. 56. 152. 55. 110. 155. 108. 146. 90. 95. 190. 113. 90.
      145. 135. 140. 142. 140. 139. 140. 129. 127. 125. 103. 124. 123.
      140. 128. 151. 111. 63. 139. 92. 93. 120. 126. 121. 60. 72. 146.
      142. 153. 71. 99. 96. 105. 84. 132. 106. 122. 132. 121. 96. 130.
      138. 127. 87. 128. 91. 88. 123. 131.</_>
    <_>
      0. 0. 0. 0. 0. 0. 0. 0. 0. 0. 0. 0. 0. 0. 0. 0. 0. 0. 0. 0. 0. 0.
      0. 0. 0. 0. 0. 0. 0. 0. 0. 0. 0. 0. 0. 0. 0. 0. 0. 0. 0. 0. 0. 0.
      0. 0. 0. 0. 0. 0. 0. 0. 0. 0. 0. 0. 0. 0. 0. 0. 0. 0. 0. 0. 0. 0.
      0. 0. 0. 0. 0. 0. 0. 0. 0. 0. 0. 0. 0. 0. 0. 0. 0. 0. 0. 0. 0. 0.
      0. 0. 0. 0. 0. 0. 0. 0. 0. 0. 0. 0. 0. 0. 0. 0. 0. 0. 0. 0. 0. 0.
      0. 0. 0. 0. 0. 0. 0. 0. 0. 0. 0. 0. 0. 0. 0. 0. 0. 0. 0. 0. 0. 0.
      0. 0. 0. 0. 0. 0. 0. 0. 0. 0. 0. 0. 0. 0. 0. 0. 0. 0. 0. 0. 0. 0.
      0. 0. 0. 0. 0. 0. 0. 0. 0. 0. 0. 0. 0. 0. 0. 0. 0. 0. 0. 0. 0. 0.
      0. 0. 0. 0. 0. 0. 0. 0. 0. 0. 0. 0. 0. 0. 0. 0. 156. 116. 123.
      111. 129. 111. 113. 130. 97. 79. 141. 115. 99. 120. 132. 118. 126.
      112. 132. 91. 91. 95. 133. 126. 124. 112. 132. 121. 120. 170. 122.
      121. 100. 138. 92. 101. 106. 111. 121. 119. 98. 99. 89. 97. 152.
      136. 162. 76. 73. 104. 101. 96. 130. 126. 140. 140. 147. 150. 107.
      117. 127. 125. 142. 118. 111. 127. 102. 89. 81. 120. 89. 95. 107.
      131. 89. 148. 128. 103. 137. 106. 104. 105. 141. 87. 95. 117. 125.
      103. 97. 133. 105. 164. 117. 127. 106. 128. 106. 109. 114. 103.
      95. 103. 98. 108. 118. 111. 105. 131. 112. 117. 137. 104. 123.
      166. 90. 114. 124. 127. 109. 88. 161. 170. 187. 118. 110. 116.
      115. 115. 106. 110. 187. 175. 178. 119. 127. 128. 102. 116. 108.
      131. 110. 173. 167. 170. 165. 106. 103. 105. 170. 170. 151. 146.
      168. 166. 168. 165. 166. 127. 110. 112. 150. 171. 150. 135. 101.
      111. 109. 100. 102. 96. 105. 126. 82. 139. 139. 201. 188. 128.
      166. 122. 132. 154. 144. 134. 134. 131. 133. 133. 136. 132. 82.
      90. 0. 0. 0. 0. 0. 0. 0. 0. 0. 0. 0. 0. 0. 0. 0. 0. 0. 0. 0. 0. 0.
      0. 0. 0. 0. 0. 0. 0. 0. 0. 0. 0. 0. 0. 0. 0. 0. 0. 0. 0. 0. 0. 0.
      0. 0. 0. 0. 0. 0. 0. 0. 0. 0. 0. 0. 0. 0. 0. 0. 0. 0. 0. 0. 0. 0.
      0. 0. 0. 0. 0. 0. 0. 0. 0. 0. 0. 0. 0. 0. 0. 0. 0. 0. 0. 0. 0. 0.
      0. 0. 0. 0. 0. 0. 0. 0. 0. 0. 0. 0. 0. 0. 0. 0. 0. 0. 0. 0. 0. 0.
      0. 0. 0. 0. 0. 0. 0. 0. 0. 0. 0. 0. 0. 0. 0. 0. 0. 0. 0. 0. 0. 0.
      0. 0. 0. 0. 0. 0. 0. 0. 0. 0. 0. 0. 0. 0. 0. 0. 0. 0. 0. 0. 0. 0.
      0. 0. 0. 0. 0. 0. 0. 0. 0. 0. 0. 0. 0. 0. 0. 0. 0. 0. 0. 0. 0. 0.
      0. 0. 0. 0. 0. 0. 0. 0. 0. 0. 0. 0. 0. 0. 0. 0. 0. 0. 0. 0. 0. 0.
      0. 0. 0. 0. 0. 0. 0. 0. 0. 0. 0. 0. 0. 0. 0. 0. 0. 0. 0. 0. 0. 0.
      0. 0. 0. 0. 0. 0. 0. 0. 0. 0. 0. 0. 0. 0. 0. 0. 0. 0. 0. 0. 0. 0.
      0. 0. 0. 0. 0. 0. 0. 0. 0. 0. 0. 0. 0. 0. 0. 0. 0. 0. 0. 0. 0. 0.
      0. 0. 0. 0. 0. 0. 0. 0. 0. 0. 0. 0. 0. 0. 0. 0. 0. 0. 0. 0. 0. 0.
      0. 0. 0. 0. 0. 0. 0. 0. 0. 0. 0. 0. 0. 0. 0. 0. 0. 0. 0. 0. 0. 0.
      0. 0. 0. 0. 0. 0. 0. 0. 0. 0. 0. 0. 0. 156. 116. 123. 111. 129.
      111. 113. 130. 97. 79. 141. 115. 99. 120. 132. 118. 126. 112. 132.
      91. 91. 95. 133. 126. 124. 112. 132. 121. 120. 170. 122. 121. 100.
      138. 92. 101. 106. 111. 121. 119. 98. 99. 89. 97. 152. 136. 162.
      76. 73. 104. 101. 96. 130. 126. 140. 140. 147. 150. 107. 117. 127.
      125. 142. 118. 111. 127. 102. 89. 81. 120. 89. 95. 107. 131. 89.
      148. 128. 103. 137. 106. 104. 105. 141. 87. 95. 117. 125. 103. 97.
      133. 105. 164. 117. 127. 106. 128. 106. 109. 114. 103. 95. 103.
      98. 108. 118. 111. 105. 131. 112. 117. 137. 104. 123. 166. 90.
      114. 124. 127. 109. 88. 161. 170. 187. 118. 110. 116. 115. 115.
      106. 110. 187. 175. 178. 119. 127. 128. 102. 116. 108. 131. 110.
      173. 167. 170. 165. 106. 103. 105. 170. 170. 151. 146. 168. 166.
      168. 165. 166. 127. 110. 112. 150. 171. 150. 135. 101. 111. 109.
      100. 102. 96. 105. 126. 82. 139. 139. 201. 188. 128. 166. 122.
      132. 154. 144. 134. 134. 131. 133. 133. 136. 132. 82. 90. 0. 0. 0.
      0. 0. 0. 0. 0. 0. 0. 0. 0. 0. 0. 0. 0. 0. 0. 0. 0. 0. 0. 0. 0. 0.
      0. 0. 0. 0. 0. 0. 0. 0. 0. 0. 0. 0. 0. 0. 0. 0. 0. 0. 0. 0. 0. 0.
      0. 0. 0. 0. 0. 0. 0. 0. 0. 0. 0. 0. 0. 0. 0. 0. 0. 0. 0. 0. 0. 0.
      0. 0. 0. 0. 0. 0. 0. 0. 0. 0. 0. 0. 0. 0. 0. 0. 0. 0. 0. 0. 0. 0.
      0. 0. 0. 0. 0. 0. 0. 0. 0. 0. 0. 0. 0. 0. 0. 0. 0. 0. 0. 0. 0. 0.
      0. 0. 0. 0. 0. 0. 0. 0. 0. 0. 0. 0. 0. 0. 0.</_>
    <_>
      195. 197. 197. 197. 194. 194. 193. 191. 191. 191. 191. 194. 191.
      191. 193. 194. 194. 197. 197. 178. 177. 207. 194. 193. 206. 188.
      216. 189. 179. 193. 185. 202. 197. 196. 190. 190. 188. 203. 193.
      193. 199. 204. 204. 203. 203. 204. 213. 191. 194. 198. 197. 200.
      201. 217. 209. 193. 199. 208. 199. 195. 203. 204. 207. 218. 176.
      195. 194. 198. 197. 195. 185. 181. 186. 171. 158. 180. 166. 166.
      165. 173. 152. 163. 178. 161. 171. 166. 187. 209. 204. 193. 183.
      198. 180. 190. 191. 194. 191. 182. 181. 177. 172. 181. 179. 173.
      165. 181. 179. 171. 150. 164. 147. 153. 170. 165. 171. 181. 157.
      173. 162. 149. 135. 97. 108. 45. 94. 56. 66. 102. 61. 79. 77. 71.
      68. 60. 76. 90. 85. 87. 80. 79. 79. 79. 86. 83. 77. 66. 77. 79.
      78. 72. 73. 84. 74. 74. 71. 72. 74. 54. 59. 63. 62. 63. 219. 119.
      108. 114. 97. 87. 107. 109. 99. 105. 135. 90. 37. 120. 139. 119.
      126. 139. 100. 107. 127. 62. 145. 80. 93. 133. 125. 131. 137. 118.
      143. 125. 140. 147. 125. 131. 155. 158. 84. 64. 64. 68. 66. 67.
      60. 66. 59. 65. 63. 53. 65. 68. 64. 66. 65. 69. 69. 57. 44. 60.
      67. 52. 61. 78. 79. 67. 67. 73. 72. 69. 66. 64. 67. 63. 62. 67.
      69. 61. 67. 58. 72. 66. 64. 66. 69. 68. 69. 53. 66. 64. 69. 69.
      53. 71. 68. 69. 64. 167. 80. 90. 107. 117. 94. 117. 128. 146. 111.
      154. 183. 134. 150. 74. 73. 67. 78. 70. 89. 177. 74. 77. 99. 84.
      89. 129. 124. 88. 125. 125. 99. 84. 104. 129. 86. 58. 147. 155.
      84. 136. 110. 87. 76. 117. 120. 117. 124. 116. 129. 148. 132. 129.
      112. 99. 133. 116. 117. 125. 104. 118. 73. 150. 155. 148. 117. 75.
      122. 111. 118. 72. 80. 76. 80. 87. 129. 150. 92. 105. 121. 94.
      114. 104. 77. 104. 109. 132. 129. 141. 92. 85. 89. 99. 108. 144.
      130. 94. 108. 111. 89. 87. 98. 138. 136. 154. 116. 163. 159. 163.
      131. 122. 118. 143. 137. 112. 97. 143. 148. 142. 115. 163. 145.
      184. 164. 175. 0. 0. 0. 0. 0. 0. 0. 0. 0. 0. 0. 0. 0. 0. 0. 0. 0.
      0. 0. 0. 0. 0. 0. 0. 0. 0. 0. 0. 0. 0. 0. 0. 0. 0. 0. 0. 0. 0. 0.
      0. 0. 0. 0. 0. 0. 0. 0. 0. 0. 0. 0. 0. 0. 0. 0. 0. 0. 0. 0. 0. 0.
      0. 0. 0. 0. 0. 0. 0. 0. 0. 0. 0. 0. 0. 0. 0. 0. 0. 0. 0. 0. 0. 0.
      0. 0. 0. 0. 0. 0. 0. 0. 0. 0. 0. 0. 0. 0. 0. 0. 0. 0. 0. 0. 0. 0.
      0. 0. 0. 0. 0. 0. 0. 0. 0. 0. 0. 0. 0. 0. 0. 0. 0. 0. 0. 0. 0. 0.
      0. 195. 197. 197. 197. 194. 194. 193. 191. 191. 191. 191. 194.
      191. 191. 193. 194. 194. 197. 197. 178. 177. 207. 194. 193. 206.
      188. 216. 189. 179. 193. 185. 202. 197. 196. 190. 190. 188. 203.
      193. 193. 199. 204. 204. 203. 203. 204. 213. 191. 194. 198. 197.
      200. 201. 217. 209. 193. 199. 208. 199. 195. 203. 204. 207. 218.
      176. 195. 194. 198. 197. 195. 185. 181. 186. 171. 158. 180. 166.
      166. 165. 173. 152. 163. 178. 161. 171. 166. 187. 209. 204. 193.
      183. 198. 180. 190. 191. 194. 191. 182. 181. 177. 172. 181. 179.
      173. 165. 181. 179. 171. 150. 164. 147. 153. 170. 165. 171. 181.
      157. 173. 162. 149. 135. 97. 108. 45. 94. 56. 66. 102. 61. 79. 77.
      71. 68. 60. 76. 90. 85. 87. 80. 79. 79. 79. 86. 83. 77. 66. 77.
      79. 78. 72. 73. 84. 74. 74. 71. 72. 74. 54. 59. 63. 62. 63. 219.
      119. 108. 114. 97. 87. 107. 109. 99. 105. 135. 90. 37. 120. 139.
      119. 126. 139. 100. 107. 127. 62. 145. 80. 93. 133. 125. 131. 137.
      118. 143. 125. 140. 147. 125. 131. 155. 158. 84. 64. 64. 68. 66.
      67. 60. 66. 59. 65. 63. 53. 65. 68. 64. 66. 65. 69. 69. 57. 44.
      60. 67. 52. 61. 78. 79. 67. 67. 73. 72. 69. 66. 64. 67. 63. 62.
      67. 69. 61. 67. 58. 72. 66. 64. 66. 69. 68. 69. 53. 66. 64. 69.
      69. 53. 71. 68. 69. 64. 167. 80. 90. 107. 117. 94. 117. 128. 146.
      111. 154. 183. 134. 150. 74. 73. 67. 78. 70. 89. 177. 74. 77. 99.
      84. 89. 129. 124. 88. 125. 125. 99. 84. 104. 129. 86. 58. 147.
      155. 84. 136. 110. 87. 76. 117. 120. 117. 124. 116. 129. 148. 132.
      129. 112. 99. 133. 116. 117. 125. 104. 118. 73. 150. 155. 148.
      117. 75. 122. 111. 118. 72. 80. 76. 80. 87. 129. 150. 92. 105.
      121. 94. 114. 104. 77. 104. 109. 132. 129. 141. 92. 85. 89. 99.
      108. 144. 130. 94. 108. 111. 89. 87. 98. 138. 136. 154. 116. 163.
      159. 163. 131. 122. 118. 143. 137. 112. 97. 143. 148. 142. 115.
      163. 145. 184. 164. 175. 0. 0. 0. 0. 0. 0. 0. 0. 0. 0. 0. 0. 0. 0.
      0. 0. 0. 0. 0. 0. 0. 0. 0. 0. 0. 0. 0. 0. 0. 0. 0. 0. 0. 0. 0. 0.
      0. 0. 0. 0. 0. 0. 0. 0. 0. 0. 0. 0. 0. 0. 0. 0. 0. 0. 0. 0. 0. 0.
      0. 0. 0. 0. 0. 0. 0. 0. 0. 0. 0. 0. 0. 0. 0. 0. 0. 0. 0. 0. 0. 0.
      0. 0. 0. 0. 0. 0. 0. 0. 0. 0. 0. 0. 0. 0. 0. 0. 0. 0. 0. 0. 0. 0.
      0. 0. 0. 0. 0. 0. 0. 0. 0. 0. 0. 0. 0. 0. 0. 0. 0. 0. 0. 0. 0. 0.
      0. 0. 0. 0.</_>
    <_>
      204. 204. 204. 204. 204. 205. 205. 205. 205. 205. 202. 199. 197.
      196. 194. 193. 194. 194. 196. 197. 199. 202. 205. 205. 204. 202.
      199. 199. 201. 202. 202. 202. 199. 199. 199. 199. 199. 199. 199.
      199. 199. 199. 199. 199. 199. 199. 199. 199. 199. 199. 199. 197.
      197. 197. 197. 197. 201. 200. 200. 198. 201. 197. 195. 198. 194.
      191. 191. 195. 194. 199. 192. 194. 195. 192. 196. 191. 197. 189.
      193. 194. 188. 191. 189. 190. 192. 188. 192. 183. 183. 183. 183.
      189. 185. 175. 181. 188. 181. 183. 184. 179. 190. 182. 185. 182.
      185. 181. 181. 175. 173. 191. 176. 181. 178. 183. 189. 182. 184.
      183. 196. 181. 177. 181. 184. 172. 182. 180. 178. 179. 178. 179.
      178. 178. 176. 179. 174. 174. 174. 172. 171. 170. 167. 165. 165.
      164. 161. 158. 156. 159. 155. 156. 160. 150. 151. 144. 146. 142.
      134. 141. 134. 138. 127. 125. 92. 101. 116. 109. 111. 109. 110.
      97. 95. 103. 90. 112. 110. 98. 94. 87. 94. 82. 99. 97. 107. 99.
      103. 104. 106. 107. 109. 107. 105. 105. 104. 102. 104. 102. 102.
      102. 102. 95. 102. 99. 99. 97. 100. 95. 98. 99. 98. 96. 96. 98.
      98. 98. 96. 95. 95. 93. 93. 90. 92. 90. 92. 86. 87. 87. 89. 87.
      91. 86. 86. 84. 84. 84. 84. 84. 82. 81. 76. 78. 76. 73. 72. 70.
      69. 70. 66. 67. 67. 67. 67. 67. 67. 66. 64. 63. 63. 53. 61. 68.
      69. 69. 68. 66. 72. 65. 171. 177. 56. 70. 67. 66. 67. 67. 67. 66.
      73. 69. 59. 66. 67. 67. 67. 67. 70. 70. 101. 193. 162. 69. 61.
      151. 153. 163. 164. 65. 71. 66. 62. 72. 116. 142. 140. 130. 104.
      94. 106. 121. 93. 98. 123. 81. 109. 67. 88. 113. 115. 128. 122.
      123. 110. 111. 132. 106. 67. 98. 104. 85. 129. 49. 173. 164. 103.
      70. 121. 110. 123. 118. 112. 124. 125. 117. 118. 115. 146. 131.
      165. 111. 112. 109. 134. 113. 94. 80. 78. 80. 84. 106. 78. 72.
      102. 87. 125. 117. 120. 65. 75. 93. 102. 74. 74. 59. 69. 165. 104.
      101. 163. 122. 120. 109. 81. 115. 141. 83. 98. 119. 80. 136. 137.
      136. 134. 136. 110. 133. 126. 137. 116. 136. 148. 114. 111. 116.
      108. 62. 96. 90. 96. 121. 100. 151. 127. 153. 150. 168. 174. 142.
      108. 119. 122. 124. 127. 129. 133. 92. 103. 102. 92. 99. 116. 143.
      136. 148. 140. 84. 145. 92. 107. 109. 116. 114. 141. 91. 109. 74.
      96. 124. 121. 126. 168. 159. 82. 70. 71. 77. 87. 139. 146. 171.
      109. 97. 104. 105. 63. 83. 66. 66. 99. 93. 91. 131. 109. 92. 96.
      101. 97. 91. 96. 62. 73. 133. 115. 120. 119. 120. 143. 125. 119.
      113. 121. 86. 163. 92. 120. 147. 157. 157. 153. 145. 104. 99. 102.
      95. 93. 129. 82. 106. 123. 101. 95. 91. 95. 95. 204. 204. 204.
      204. 204. 205. 205. 205. 205. 205. 202. 199. 197. 196. 194. 193.
      194. 194. 196. 197. 199. 202. 205. 205. 204. 202. 199. 199. 201.
      202. 202. 202. 199. 199. 199. 199. 199. 199. 199. 199. 199. 199.
      199. 199. 199. 199. 199. 199. 199. 199. 199. 197. 197. 197. 197.
      197. 201. 200. 200. 198. 201. 197. 195. 198. 194. 191. 191. 195.
      194. 199. 192. 194. 195. 192. 196. 191. 197. 189. 193. 194. 188.
      191. 189. 190. 192. 188. 192. 183. 183. 183. 183. 189. 185. 175.
      181. 188. 181. 183. 184. 179. 190. 182. 185. 182. 185. 181. 181.
      175. 173. 191. 176. 181. 178. 183. 189. 182. 184. 183. 196. 181.
      177. 181. 184. 172. 182. 180. 178. 179. 178. 179. 178. 178. 176.
      179. 174. 174. 174. 172. 171. 170. 167. 165. 165. 164. 161. 158.
      156. 159. 155. 156. 160. 150. 151. 144. 146. 142. 134. 141. 134.
      138. 127. 125. 92. 101. 116. 109. 111. 109. 110. 97. 95. 103. 90.
      112. 110. 98. 94. 87. 94. 82. 99. 97. 107. 99. 103. 104. 106. 107.
      109. 107. 105. 105. 104. 102. 104. 102. 102. 102. 102. 95. 102.
      99. 99. 97. 100. 95. 98. 99. 98. 96. 96. 98. 98. 98. 96. 95. 95.
      93. 93. 90. 92. 90. 92. 86. 87. 87. 89. 87. 91. 86. 86. 84. 84.
      84. 84. 84. 82. 81. 76. 78. 76. 73. 72. 70. 69. 70. 66. 67. 67.
      67. 67. 67. 67. 66. 64. 63. 63. 53. 61. 68. 69. 69. 68. 66. 72.
      65. 171. 177. 56. 70. 67. 66. 67. 67. 67. 66. 73. 69. 59. 66. 67.
      67. 67. 67. 70. 70. 101. 193. 162. 69. 61. 151. 153. 163. 164. 65.
      71. 66. 62. 72. 116. 142. 140. 130. 104. 94. 106. 121. 93. 98.
      123. 81. 109. 67. 88. 113. 115. 128. 122. 123. 110. 111. 132. 106.
      67. 98. 104. 85. 129. 49. 173. 164. 103. 70. 121. 110. 123. 118.
      112. 124. 125. 117. 118. 115. 146. 131. 165. 111. 112. 109. 134.
      113. 94. 80. 78. 80. 84. 106. 78. 72. 102. 87. 125. 117. 120. 65.
      75. 93. 102. 74. 74. 59. 69. 165. 104. 101. 163. 122. 120. 109.
      81. 115. 141. 83. 98. 119. 80. 136. 137. 136. 134. 136. 110. 133.
      126. 137. 116. 136. 148. 114. 111. 116. 108. 62. 96. 90. 96. 121.
      100. 151. 127. 153. 150. 168. 174. 142. 108. 119. 122. 124. 127.
      129. 133. 92. 103. 102. 92. 99. 116. 143. 136. 148. 140. 84. 145.
      92. 107. 109. 116. 114. 141. 91. 109. 74. 96. 124. 121. 126. 168.
      159. 82. 70. 71. 77. 87. 139. 146. 171. 109. 97. 104. 105. 63. 83.
      66. 66. 99. 93. 91. 131. 109. 92. 96. 101. 97. 91. 96. 62. 73.
      133. 115. 120. 119. 120. 143. 125. 119. 113. 121. 86. 163. 92.
      120. 147. 157. 157. 153. 145. 104. 99. 102. 95. 93. 129. 82. 106.
      123. 101. 95. 91. 95. 95.</_>
    <_>
      62. 65. 34. 99. 69. 81. 35. 61. 47. 60. 81. 68. 66. 67. 45. 63.
      55. 60. 56. 56. 59. 65. 38. 56. 32. 61. 54. 55. 80. 63. 61. 70.
      67. 77. 71. 32. 51. 57. 62. 59. 64. 49. 61. 61. 69. 60. 59. 51.
      54. 37. 60. 58. 57. 58. 61. 59. 58. 61. 56. 68. 71. 71. 48. 58.
      114. 133. 124. 90. 113. 111. 110. 126. 141. 120. 89. 120. 114.
      114. 133. 160. 171. 183. 130. 139. 137. 165. 124. 120. 127. 130.
      126. 155. 170. 88. 90. 150. 108. 132. 136. 102. 112. 95. 97. 137.
      120. 115. 108. 113. 110. 104. 116. 104. 76. 100. 121. 123. 130.
      158. 159. 162. 89. 92. 87. 102. 136. 116. 156. 86. 125. 108. 128.
      147. 126. 145. 99. 111. 127. 115. 122. 150. 125. 142. 115. 128.
      121. 120. 126. 116. 138. 139. 135. 137. 137. 143. 140. 139. 95.
      115. 115. 141. 142. 143. 128. 136. 115. 135. 149. 98. 138. 138.
      132. 127. 152. 162. 156. 159. 137. 132. 134. 129. 101. 99. 103.
      109. 113. 107. 123. 124. 135. 98. 139. 129. 106. 124. 153. 122.
      96. 137. 142. 138. 117. 120. 136. 123. 112. 113. 175. 178. 109.
      113. 129. 91. 133. 102. 126. 105. 108. 104. 114. 105. 104. 140.
      139. 141. 144. 149. 147. 92. 96. 97. 90. 88. 97. 93. 95. 81. 93.
      97. 96. 93. 101. 111. 112. 121. 122. 114. 122. 118. 113. 140. 135.
      134. 143. 153. 135. 145. 134. 169. 120. 162. 157. 175. 75. 69. 74.
      68. 73. 69. 70. 70. 76. 78. 80. 85. 87. 89. 90. 93. 95. 96. 99.
      101. 102. 104. 105. 107. 109. 110. 115. 118. 121. 124. 129. 132.
      139. 146. 148. 145. 154. 148. 159. 155. 160. 157. 168. 168. 166.
      164. 163. 171. 169. 178. 162. 171. 178. 175. 182. 184. 187. 181.
      179. 193. 188. 190. 182. 171. 194. 185. 186. 200. 190. 193. 189.
      179. 174. 179. 184. 198. 191. 193. 185. 192. 178. 188. 170. 179.
      177. 179. 213. 189. 198. 204. 212. 207. 203. 203. 200. 205. 207.
      205. 205. 204. 203. 206. 208. 202. 202. 202. 202. 202. 201. 199.
      199. 199. 199. 199. 199. 199. 199. 199. 199. 199. 199. 199. 197.
      197. 197. 197. 197. 197. 197. 197. 197. 197. 197. 198. 197. 197.
      197. 197. 197. 196. 194. 194. 194. 189. 188. 188. 185. 185. 185.
      190. 190. 190. 188. 188. 188. 188. 188. 188. 188. 188. 191. 188.
      188. 188. 188. 188. 185. 187. 190. 191. 191. 191. 191. 191. 191.
      193. 193. 191. 191. 191. 190. 191. 195. 194. 199. 201. 189. 175.
      199. 190. 195. 192. 176. 193. 180. 192. 168. 164. 178. 172. 176.
      177. 166. 176. 159. 166. 146. 157. 152. 157. 166. 172. 159. 170.
      168. 171. 178. 154. 157. 138. 137. 137. 165. 178. 178. 186. 186.
      187. 181. 200. 201. 204. 205. 196. 208. 208. 205. 204. 223. 218.
      219. 211. 203. 202. 186. 202. 202. 204. 200. 199. 62. 65. 34. 99.
      69. 81. 35. 61. 47. 60. 81. 68. 66. 67. 45. 63. 55. 60. 56. 56.
      59. 65. 38. 56. 32. 61. 54. 55. 80. 63. 61. 70. 67. 77. 71. 32.
      51. 57. 62. 59. 64. 49. 61. 61. 69. 60. 59. 51. 54. 37. 60. 58.
      57. 58. 61. 59. 58. 61. 56. 68. 71. 71. 48. 58. 114. 133. 124. 90.
      113. 111. 110. 126. 141. 120. 89. 120. 114. 114. 133. 160. 171.
      183. 130. 139. 137. 165. 124. 120. 127. 130. 126. 155. 170. 88.
      90. 150. 108. 132. 136. 102. 112. 95. 97. 137. 120. 115. 108. 113.
      110. 104. 116. 104. 76. 100. 121. 123. 130. 158. 159. 162. 89. 92.
      87. 102. 136. 116. 156. 86. 125. 108. 128. 147. 126. 145. 99. 111.
      127. 115. 122. 150. 125. 142. 115. 128. 121. 120. 126. 116. 138.
      139. 135. 137. 137. 143. 140. 139. 95. 115. 115. 141. 142. 143.
      128. 136. 115. 135. 149. 98. 138. 138. 132. 127. 152. 162. 156.
      159. 137. 132. 134. 129. 101. 99. 103. 109. 113. 107. 123. 124.
      135. 98. 139. 129. 106. 124. 153. 122. 96. 137. 142. 138. 117.
      120. 136. 123. 112. 113. 175. 178. 109. 113. 129. 91. 133. 102.
      126. 105. 108. 104. 114. 105. 104. 140. 139. 141. 144. 149. 147.
      92. 96. 97. 90. 88. 97. 93. 95. 81. 93. 97. 96. 93. 101. 111. 112.
      121. 122. 114. 122. 118. 113. 140. 135. 134. 143. 153. 135. 145.
      134. 169. 120. 162. 157. 175. 75. 69. 74. 68. 73. 69. 70. 70. 76.
      78. 80. 85. 87. 89. 90. 93. 95. 96. 99. 101. 102. 104. 105. 107.
      109. 110. 115. 118. 121. 124. 129. 132. 139. 146. 148. 145. 154.
      148. 159. 155. 160. 157. 168. 168. 166. 164. 163. 171. 169. 178.
      162. 171. 178. 175. 182. 184. 187. 181. 179. 193. 188. 190. 182.
      171. 194. 185. 186. 200. 190. 193. 189. 179. 174. 179. 184. 198.
      191. 193. 185. 192. 178. 188. 170. 179. 177. 179. 213. 189. 198.
      204. 212. 207. 203. 203. 200. 205. 207. 205. 205. 204. 203. 206.
      208. 202. 202. 202. 202. 202. 201. 199. 199. 199. 199. 199. 199.
      199. 199. 199. 199. 199. 199. 199. 197. 197. 197. 197. 197. 197.
      197. 197. 197. 197. 197. 198. 197. 197. 197. 197. 197. 196. 194.
      194. 194. 189. 188. 188. 185. 185. 185. 190. 190. 190. 188. 188.
      188. 188. 188. 188. 188. 188. 191. 188. 188. 188. 188. 188. 185.
      187. 190. 191. 191. 191. 191. 191. 191. 193. 193. 191. 191. 191.
      190. 191. 195. 194. 199. 201. 189. 175. 199. 190. 195. 192. 176.
      193. 180. 192. 168. 164. 178. 172. 176. 177. 166. 176. 159. 166.
      146. 157. 152. 157. 166. 172. 159. 170. 168. 171. 178. 154. 157.
      138. 137. 137. 165. 178. 178. 186. 186. 187. 181. 200. 201. 204.
      205. 196. 208. 208. 205. 204. 223. 218. 219. 211. 203. 202. 186.
      202. 202. 204. 200. 199.</_>
    <_>
      0. 0. 0. 0. 0. 0. 0. 0. 0. 0. 0. 0. 0. 0. 0. 0. 0. 0. 0. 0. 0. 0.
      0. 0. 0. 0. 0. 0. 0. 0. 0. 0. 0. 0. 0. 0. 0. 0. 0. 0. 0. 0. 0. 0.
      0. 0. 0. 0. 0. 0. 0. 0. 0. 0. 0. 0. 0. 0. 0. 0. 0. 0. 0. 0. 0. 0.
      0. 0. 0. 0. 0. 0. 0. 0. 0. 0. 0. 0. 0. 0. 0. 0. 0. 0. 0. 0. 0. 0.
      0. 0. 0. 0. 0. 0. 0. 0. 0. 0. 0. 0. 0. 0. 0. 0. 0. 0. 0. 0. 0. 0.
      0. 0. 0. 0. 0. 0. 0. 0. 0. 0. 0. 0. 0. 0. 0. 0. 0. 0. 114. 99. 92.
      120. 110. 96. 95. 96. 97. 123. 140. 164. 165. 164. 168. 167. 164.
      135. 122. 121. 130. 134. 78. 104. 104. 109. 112. 110. 67. 74. 96.
      102. 96. 93. 90. 95. 89. 83. 85. 95. 101. 101. 111. 129. 154. 121.
      116. 112. 95. 115. 100. 106. 99. 108. 114. 111. 116. 121. 131.
      114. 128. 142. 87. 89. 91. 81. 113. 108. 69. 92. 100. 95. 97. 89.
      115. 114. 133. 101. 123. 114. 173. 177. 172. 74. 132. 118. 93.
      136. 123. 90. 111. 157. 126. 148. 122. 147. 129. 127. 137. 102.
      104. 103. 132. 115. 195. 125. 128. 141. 170. 129. 119. 103. 116.
      117. 112. 119. 123. 115. 121. 117. 128. 110. 128. 111. 116. 123.
      113. 116. 120. 116. 139. 158. 132. 120. 120. 118. 121. 113. 116.
      118. 119. 93. 140. 121. 124. 126. 121. 123. 127. 134. 147. 121.
      141. 141. 101. 117. 96. 97. 63. 158. 152. 160. 101. 110. 105. 90.
      119. 105. 128. 137. 124. 129. 111. 129. 135. 116. 118. 109. 115.
      110. 110. 105. 97. 89. 136. 127. 113. 91. 113. 114. 126. 115. 58.
      68. 57. 59. 37. 60. 57. 37. 38. 61. 41. 45. 35. 50. 67. 74. 53.
      52. 49. 63. 59. 57. 75. 75. 59. 59. 71. 65. 63. 62. 58. 64. 43.
      34. 43. 35. 25. 43. 38. 56. 85. 92. 86. 90. 87. 36. 59. 59. 63.
      62. 59. 43. 44. 35. 49. 71. 61. 63. 67. 68. 68. 66. 70. 71. 202.
      107. 114. 98. 153. 142. 147. 150. 167. 184. 194. 194. 104. 98.
      112. 117. 125. 95. 102. 139. 151. 93. 96. 108. 101. 94. 133. 113.
      130. 137. 117. 109. 111. 106. 112. 143. 172. 175. 124. 118. 124.
      103. 155. 136. 131. 142. 81. 96. 104. 117. 145. 146. 148. 141.
      149. 145. 116. 119. 108. 131. 139. 138. 166. 143. 149. 133. 98.
      92. 134. 142. 80. 114. 110. 129. 109. 108. 126. 138. 125. 131.
      134. 129. 86. 112. 114. 113. 112. 113. 111. 97. 97. 107. 68. 74.
      108. 92. 121. 79. 88. 85. 99. 137. 165. 117. 103. 111. 107. 155.
      159. 138. 124. 149. 159. 152. 121. 114. 145. 151. 138. 141. 76.
      157. 66. 127. 151. 118. 100. 132. 0. 0. 0. 0. 0. 0. 0. 0. 0. 0. 0.
      0. 0. 0. 0. 0. 0. 0. 0. 0. 0. 0. 0. 0. 0. 0. 0. 0. 0. 0. 0. 0. 0.
      0. 0. 0. 0. 0. 0. 0. 0. 0. 0. 0. 0. 0. 0. 0. 0. 0. 0. 0. 0. 0. 0.
      0. 0. 0. 0. 0. 0. 0. 0. 0. 0. 0. 0. 0. 0. 0. 0. 0. 0. 0. 0. 0. 0.
      0. 0. 0. 0. 0. 0. 0. 0. 0. 0. 0. 0. 0. 0. 0. 0. 0. 0. 0. 0. 0. 0.
      0. 0. 0. 0. 0. 0. 0. 0. 0. 0. 0. 0. 0. 0. 0. 0. 0. 0. 0. 0. 0. 0.
      0. 0. 0. 0. 0. 0. 0. 114. 99. 92. 120. 110. 96. 95. 96. 97. 123.
      140. 164. 165. 164. 168. 167. 164. 135. 122. 121. 130. 134. 78.
      104. 104. 109. 112. 110. 67. 74. 96. 102. 96. 93. 90. 95. 89. 83.
      85. 95. 101. 101. 111. 129. 154. 121. 116. 112. 95. 115. 100. 106.
      99. 108. 114. 111. 116. 121. 131. 114. 128. 142. 87. 89. 91. 81.
      113. 108. 69. 92. 100. 95. 97. 89. 115. 114. 133. 101. 123. 114.
      173. 177. 172. 74. 132. 118. 93. 136. 123. 90. 111. 157. 126. 148.
      122. 147. 129. 127. 137. 102. 104. 103. 132. 115. 195. 125. 128.
      141. 170. 129. 119. 103. 116. 117. 112. 119. 123. 115. 121. 117.
      128. 110. 128. 111. 116. 123. 113. 116. 120. 116. 139. 158. 132.
      120. 120. 118. 121. 113. 116. 118. 119. 93. 140. 121. 124. 126.
      121. 123. 127. 134. 147. 121. 141. 141. 101. 117. 96. 97. 63. 158.
      152. 160. 101. 110. 105. 90. 119. 105. 128. 137. 124. 129. 111.
      129. 135. 116. 118. 109. 115. 110. 110. 105. 97. 89. 136. 127.
      113. 91. 113. 114. 126. 115. 58. 68. 57. 59. 37. 60. 57. 37. 38.
      61. 41. 45. 35. 50. 67. 74. 53. 52. 49. 63. 59. 57. 75. 75. 59.
      59. 71. 65. 63. 62. 58. 64. 43. 34. 43. 35. 25. 43. 38. 56. 85.
      92. 86. 90. 87. 36. 59. 59. 63. 62. 59. 43. 44. 35. 49. 71. 61.
      63. 67. 68. 68. 66. 70. 71. 202. 107. 114. 98. 153. 142. 147. 150.
      167. 184. 194. 194. 104. 98. 112. 117. 125. 95. 102. 139. 151. 93.
      96. 108. 101. 94. 133. 113. 130. 137. 117. 109. 111. 106. 112.
      143. 172. 175. 124. 118. 124. 103. 155. 136. 131. 142. 81. 96.
      104. 117. 145. 146. 148. 141. 149. 145. 116. 119. 108. 131. 139.
      138. 166. 143. 149. 133. 98. 92. 134. 142. 80. 114. 110. 129. 109.
      108. 126. 138. 125. 131. 134. 129. 86. 112. 114. 113. 112. 113.
      111. 97. 97. 107. 68. 74. 108. 92. 121. 79. 88. 85. 99. 137. 165.
      117. 103. 111. 107. 155. 159. 138. 124. 149. 159. 152. 121. 114.
      145. 151. 138. 141. 76. 157. 66. 127. 151. 118. 100. 132.</_>
    <_>
      101. 114. 86. 109. 119. 116. 80. 154. 129. 176. 51. 60. 64. 74.
      77. 80. 87. 90. 95. 99. 86. 97. 105. 102. 101. 101. 104. 105. 106.
      107. 115. 108. 112. 112. 115. 117. 118. 122. 125. 126. 123. 130.
      126. 132. 129. 129. 132. 130. 131. 132. 138. 135. 135. 130. 129.
      134. 136. 139. 144. 146. 146. 137. 142. 142. 144. 145. 148. 150.
      156. 159. 150. 146. 154. 154. 155. 156. 156. 156. 159. 156. 156.
      156. 156. 156. 162. 153. 156. 156. 162. 161. 159. 161. 158. 157.
      161. 156. 158. 164. 164. 167. 164. 160. 161. 159. 161. 166. 167.
      166. 170. 173. 168. 170. 173. 174. 168. 171. 171. 168. 165. 164.
      173. 175. 173. 173. 172. 177. 172. 169. 178. 178. 178. 181. 184.
      183. 181. 183. 180. 192. 176. 181. 190. 185. 177. 183. 181. 185.
      184. 181. 181. 183. 183. 179. 182. 181. 182. 182. 180. 181. 182.
      179. 181. 187. 183. 185. 178. 185. 182. 180. 178. 183. 179. 182.
      185. 185. 183. 188. 185. 185. 180. 183. 179. 183. 179. 179. 182.
      186. 182. 171. 144. 169. 160. 179. 177. 184. 182. 183. 182. 185.
      184. 187. 177. 179. 175. 181. 186. 190. 188. 188. 189. 194. 175.
      171. 177. 179. 184. 187. 183. 187. 191. 184. 182. 184. 185. 178.
      146. 175. 185. 186. 191. 186. 183. 187. 192. 179. 195. 190. 187.
      186. 188. 183. 179. 183. 173. 155. 184. 197. 184. 179. 178. 188.
      181. 165. 147. 181. 181. 175. 167. 167. 178. 178. 178. 178. 176.
      179. 176. 180. 180. 176. 177. 175. 174. 175. 176. 174. 174. 173.
      173. 170. 168. 167. 168. 168. 168. 165. 165. 161. 162. 162. 159.
      158. 158. 158. 156. 153. 153. 152. 149. 150. 148. 150. 147. 147.
      145. 147. 142. 142. 142. 144. 142. 139. 144. 164. 183. 132. 128.
      128. 129. 130. 129. 131. 126. 118. 127. 129. 127. 125. 128. 129.
      130. 127. 125. 137. 115. 106. 104. 104. 105. 84. 101. 101. 99. 98.
      95. 88. 77. 91. 188. 194. 190. 199. 188. 161. 91. 111. 131. 116.
      140. 137. 171. 195. 231. 116. 105. 141. 127. 37. 92. 101. 67. 66.
      103. 97. 91. 104. 93. 153. 108. 99. 104. 144. 84. 70. 79. 115.
      108. 102. 92. 73. 94. 87. 82. 81. 73. 76. 80. 80. 76. 79. 68. 81.
      82. 175. 148. 141. 141. 45. 112. 57. 77. 143. 105. 132. 72. 72.
      42. 154. 118. 107. 85. 74. 145. 136. 90. 110. 108. 110. 103. 111.
      120. 118. 107. 109. 99. 82. 95. 98. 109. 108. 110. 112. 113. 119.
      115. 88. 84. 98. 94. 95. 114. 93. 110. 53. 116. 96. 89. 121. 132.
      132. 112. 65. 60. 56. 60. 40. 36. 47. 29. 48. 76. 63. 57. 49. 81.
      64. 60. 56. 54. 43. 64. 43. 43. 54. 50. 57. 63. 69. 59. 44. 58.
      42. 43. 47. 45. 44. 46. 47. 49. 47. 64. 96. 149. 62. 36. 31. 72.
      70. 72. 70. 62. 64. 59. 57. 101. 114. 86. 109. 119. 116. 80. 154.
      129. 176. 51. 60. 64. 74. 77. 80. 87. 90. 95. 99. 86. 97. 105.
      102. 101. 101. 104. 105. 106. 107. 115. 108. 112. 112. 115. 117.
      118. 122. 125. 126. 123. 130. 126. 132. 129. 129. 132. 130. 131.
      132. 138. 135. 135. 130. 129. 134. 136. 139. 144. 146. 146. 137.
      142. 142. 144. 145. 148. 150. 156. 159. 150. 146. 154. 154. 155.
      156. 156. 156. 159. 156. 156. 156. 156. 156. 162. 153. 156. 156.
      162. 161. 159. 161. 158. 157. 161. 156. 158. 164. 164. 167. 164.
      160. 161. 159. 161. 166. 167. 166. 170. 173. 168. 170. 173. 174.
      168. 171. 171. 168. 165. 164. 173. 175. 173. 173. 172. 177. 172.
      169. 178. 178. 178. 181. 184. 183. 181. 183. 180. 192. 176. 181.
      190. 185. 177. 183. 181. 185. 184. 181. 181. 183. 183. 179. 182.
      181. 182. 182. 180. 181. 182. 179. 181. 187. 183. 185. 178. 185.
      182. 180. 178. 183. 179. 182. 185. 185. 183. 188. 185. 185. 180.
      183. 179. 183. 179. 179. 182. 186. 182. 171. 144. 169. 160. 179.
      177. 184. 182. 183. 182. 185. 184. 187. 177. 179. 175. 181. 186.
      190. 188. 188. 189. 194. 175. 171. 177. 179. 184. 187. 183. 187.
      191. 184. 182. 184. 185. 178. 146. 175. 185. 186. 191. 186. 183.
      187. 192. 179. 195. 190. 187. 186. 188. 183. 179. 183. 173. 155.
      184. 197. 184. 179. 178. 188. 181. 165. 147. 181. 181. 175. 167.
      167. 178. 178. 178. 178. 176. 179. 176. 180. 180. 176. 177. 175.
      174. 175. 176. 174. 174. 173. 173. 170. 168. 167. 168. 168. 168.
      165. 165. 161. 162. 162. 159. 158. 158. 158. 156. 153. 153. 152.
      149. 150. 148. 150. 147. 147. 145. 147. 142. 142. 142. 144. 142.
      139. 144. 164. 183. 132. 128. 128. 129. 130. 129. 131. 126. 118.
      127. 129. 127. 125. 128. 129. 130. 127. 125. 137. 115. 106. 104.
      104. 105. 84. 101. 101. 99. 98. 95. 88. 77. 91. 188. 194. 190.
      199. 188. 161. 91. 111. 131. 116. 140. 137. 171. 195. 231. 116.
      105. 141. 127. 37. 92. 101. 67. 66. 103. 97. 91. 104. 93. 153.
      108. 99. 104. 144. 84. 70. 79. 115. 108. 102. 92. 73. 94. 87. 82.
      81. 73. 76. 80. 80. 76. 79. 68. 81. 82. 175. 148. 141. 141. 45.
      112. 57. 77. 143. 105. 132. 72. 72. 42. 154. 118. 107. 85. 74.
      145. 136. 90. 110. 108. 110. 103. 111. 120. 118. 107. 109. 99. 82.
      95. 98. 109. 108. 110. 112. 113. 119. 115. 88. 84. 98. 94. 95.
      114. 93. 110. 53. 116. 96. 89. 121. 132. 132. 112. 65. 60. 56. 60.
      40. 36. 47. 29. 48. 76. 63. 57. 49. 81. 64. 60. 56. 54. 43. 64.
      43. 43. 54. 50. 57. 63. 69. 59. 44. 58. 42. 43. 47. 45. 44. 46.
      47. 49. 47. 64. 96. 149. 62. 36. 31. 72. 70. 72. 70. 62. 64. 59.
      57.</_>
    <_>
      139. 139. 138. 138. 138. 138. 139. 139. 139. 141. 141. 141. 141.
      139. 139. 139. 139. 139. 138. 138. 139. 139. 139. 139. 139. 117.
      146. 134. 131. 118. 132. 126. 133. 139. 138. 143. 149. 143. 129.
      129. 133. 134. 138. 135. 131. 139. 136. 126. 140. 132. 138. 138.
      136. 137. 133. 141. 132. 140. 141. 142. 141. 141. 137. 140. 140.
      142. 138. 132. 130. 141. 134. 134. 140. 135. 123. 123. 134. 132.
      132. 136. 124. 143. 143. 131. 125. 129. 125. 136. 131. 126. 133.
      109. 146. 142. 137. 139. 125. 113. 150. 134. 139. 141. 77. 79.
      132. 142. 133. 133. 139. 146. 146. 138. 144. 141. 138. 136. 136.
      139. 136. 135. 134. 128. 140. 144. 147. 141. 136. 127. 139. 138.
      135. 147. 143. 113. 130. 139. 126. 161. 144. 129. 121. 135. 126.
      134. 135. 112. 142. 120. 139. 113. 103. 127. 136. 152. 129. 134.
      131. 129. 136. 120. 113. 142. 121. 146. 123. 99. 102. 95. 103. 96.
      92. 84. 73. 86. 128. 112. 110. 155. 111. 50. 79. 89. 151. 108.
      147. 87. 78. 163. 113. 118. 124. 128. 143. 78. 126. 146. 140. 164.
      99. 113. 164. 132. 112. 116. 128. 110. 133. 110. 90. 147. 94. 70.
      95. 76. 127. 142. 120. 125. 115. 133. 138. 69. 100. 107. 95. 142.
      89. 138. 104. 126. 87. 92. 77. 128. 116. 131. 113. 114. 106. 65.
      135. 80. 107. 112. 119. 124. 85. 126. 114. 133. 130. 90. 130. 94.
      137. 126. 117. 131. 129. 118. 140. 126. 128. 107. 121. 115. 152.
      140. 130. 142. 150. 149. 146. 146. 145. 150. 133. 139. 148. 139.
      147. 135. 142. 143. 132. 146. 138. 133. 146. 139. 123. 139. 143.
      130. 136. 132. 138. 140. 140. 144. 135. 140. 155. 150. 131. 152.
      152. 144. 144. 147. 145. 145. 141. 146. 140. 136. 141. 138. 142.
      146. 142. 138. 148. 137. 138. 136. 141. 144. 144. 140. 142. 149.
      140. 145. 145. 139. 150. 144. 132. 150. 143. 133. 140. 135. 124.
      147. 138. 135. 140. 134. 129. 142. 126. 142. 136. 142. 133. 136.
      133. 133. 121. 129. 112. 129. 144. 131. 123. 132. 134. 141. 141.
      130. 137. 136. 121. 129. 129. 144. 140. 136. 133. 144. 139. 139.
      121. 135. 147. 125. 152. 133. 136. 128. 129. 140. 151. 147. 156.
      136. 144. 139. 134. 146. 147. 130. 148. 140. 140. 139. 143. 134.
      129. 122. 127. 130. 142. 142. 147. 147. 144. 144. 146. 145. 142.
      138. 145. 140. 147. 143. 144. 144. 148. 141. 140. 144. 146. 147.
      145. 142. 145. 145. 144. 146. 139. 139. 147. 144. 149. 146. 142.
      147. 146. 152. 132. 150. 142. 145. 145. 146. 140. 140. 154. 142.
      131. 152. 139. 145. 139. 135. 144. 142. 131. 125. 119. 146. 143.
      146. 143. 150. 146. 141. 139. 151. 146. 144. 147. 145. 147. 148.
      143. 103. 126. 134. 135. 149. 144. 130. 138. 144. 143. 139. 141.
      139. 143. 142. 142. 132. 142. 139. 146. 146. 143. 140. 139. 139.
      138. 138. 138. 138. 139. 139. 139. 141. 141. 141. 141. 139. 139.
      139. 139. 139. 138. 138. 139. 139. 139. 139. 139. 117. 146. 134.
      131. 118. 132. 126. 133. 139. 138. 143. 149. 143. 129. 129. 133.
      134. 138. 135. 131. 139. 136. 126. 140. 132. 138. 138. 136. 137.
      133. 141. 132. 140. 141. 142. 141. 141. 137. 140. 140. 142. 138.
      132. 130. 141. 134. 134. 140. 135. 123. 123. 134. 132. 132. 136.
      124. 143. 143. 131. 125. 129. 125. 136. 131. 126. 133. 109. 146.
      142. 137. 139. 125. 113. 150. 134. 139. 141. 77. 79. 132. 142.
      133. 133. 139. 146. 146. 138. 144. 141. 138. 136. 136. 139. 136.
      135. 134. 128. 140. 144. 147. 141. 136. 127. 139. 138. 135. 147.
      143. 113. 130. 139. 126. 161. 144. 129. 121. 135. 126. 134. 135.
      112. 142. 120. 139. 113. 103. 127. 136. 152. 129. 134. 131. 129.
      136. 120. 113. 142. 121. 146. 123. 99. 102. 95. 103. 96. 92. 84.
      73. 86. 128. 112. 110. 155. 111. 50. 79. 89. 151. 108. 147. 87.
      78. 163. 113. 118. 124. 128. 143. 78. 126. 146. 140. 164. 99. 113.
      164. 132. 112. 116. 128. 110. 133. 110. 90. 147. 94. 70. 95. 76.
      127. 142. 120. 125. 115. 133. 138. 69. 100. 107. 95. 142. 89. 138.
      104. 126. 87. 92. 77. 128. 116. 131. 113. 114. 106. 65. 135. 80.
      107. 112. 119. 124. 85. 126. 114. 133. 130. 90. 130. 94. 137. 126.
      117. 131. 129. 118. 140. 126. 128. 107. 121. 115. 152. 140. 130.
      142. 150. 149. 146. 146. 145. 150. 133. 139. 148. 139. 147. 135.
      142. 143. 132. 146. 138. 133. 146. 139. 123. 139. 143. 130. 136.
      132. 138. 140. 140. 144. 135. 140. 155. 150. 131. 152. 152. 144.
      144. 147. 145. 145. 141. 146. 140. 136. 141. 138. 142. 146. 142.
      138. 148. 137. 138. 136. 141. 144. 144. 140. 142. 149. 140. 145.
      145. 139. 150. 144. 132. 150. 143. 133. 140. 135. 124. 147. 138.
      135. 140. 134. 129. 142. 126. 142. 136. 142. 133. 136. 133. 133.
      121. 129. 112. 129. 144. 131. 123. 132. 134. 141. 141. 130. 137.
      136. 121. 129. 129. 144. 140. 136. 133. 144. 139. 139. 121. 135.
      147. 125. 152. 133. 136. 128. 129. 140. 151. 147. 156. 136. 144.
      139. 134. 146. 147. 130. 148. 140. 140. 139. 143. 134. 129. 122.
      127. 130. 142. 142. 147. 147. 144. 144. 146. 145. 142. 138. 145.
      140. 147. 143. 144. 144. 148. 141. 140. 144. 146. 147. 145. 142.
      145. 145. 144. 146. 139. 139. 147. 144. 149. 146. 142. 147. 146.
      152. 132. 150. 142. 145. 145. 146. 140. 140. 154. 142. 131. 152.
      139. 145. 139. 135. 144. 142. 131. 125. 119. 146. 143. 146. 143.
      150. 146. 141. 139. 151. 146. 144. 147. 145. 147. 148. 143. 103.
      126. 134. 135. 149. 144. 130. 138. 144. 143. 139. 141. 139. 143.
      142. 142. 132. 142. 139. 146. 146. 143. 140.</_>
    <_>
      100. 73. 64. 59. 68. 74. 103. 193. 171. 186. 187. 188. 191. 60.
      62. 57. 65. 67. 78. 67. 172. 94. 134. 126. 135. 125. 102. 104. 76.
      98. 132. 89. 118. 85. 82. 59. 90. 71. 81. 77. 70. 63. 65. 69. 80.
      160. 170. 165. 79. 73. 70. 74. 82. 70. 90. 152. 129. 111. 115.
      122. 123. 132. 100. 140. 129. 127. 140. 139. 160. 111. 159. 125.
      125. 99. 116. 107. 150. 155. 131. 116. 116. 108. 122. 99. 137. 84.
      67. 68. 179. 87. 80. 125. 140. 140. 88. 97. 85. 84. 52. 69. 71.
      79. 81. 90. 155. 162. 117. 95. 103. 81. 81. 97. 75. 65. 72. 81.
      75. 77. 82. 86. 104. 115. 89. 67. 74. 137. 152. 170. 108. 69. 135.
      79. 68. 98. 60. 93. 96. 108. 98. 109. 95. 59. 68. 113. 96. 115.
      100. 127. 73. 44. 92. 112. 114. 135. 124. 130. 123. 70. 150. 160.
      160. 159. 145. 137. 79. 115. 148. 152. 156. 169. 146. 144. 145.
      151. 140. 144. 128. 145. 103. 112. 106. 63. 71. 78. 72. 93. 81.
      73. 39. 95. 77. 59. 27. 35. 29. 58. 94. 61. 62. 57. 74. 57. 60.
      75. 74. 68. 71. 71. 70. 71. 75. 45. 71. 67. 67. 39. 53. 48. 49.
      46. 34. 68. 48. 47. 42. 44. 59. 21. 53. 55. 37. 50. 45. 54. 64.
      55. 38. 30. 82. 80. 63. 25. 45. 53. 53. 52. 51. 49. 55. 81. 78.
      82. 81. 74. 49. 48. 49. 48. 41. 47. 51. 50. 51. 45. 46. 48. 43.
      41. 51. 53. 37. 24. 44. 49. 50. 46. 49. 49. 40. 36. 61. 58. 61.
      32. 70. 26. 42. 37. 29. 38. 58. 57. 57. 64. 57. 55. 54. 49. 45.
      48. 48. 60. 45. 47. 48. 46. 66. 59. 57. 41. 68. 69. 41. 39. 55.
      55. 59. 70. 60. 52. 66. 75. 74. 73. 65. 27. 53. 50. 42. 42. 39.
      42. 46. 37. 41. 67. 76. 77. 51. 52. 40. 39. 38. 41. 39. 43. 37.
      41. 40. 36. 59. 50. 40. 39. 44. 35. 67. 59. 32. 45. 47. 43. 42.
      52. 58. 65. 33. 42. 44. 43. 51. 45. 48. 43. 67. 52. 49. 62. 59.
      61. 45. 53. 45. 47. 47. 48. 51. 49. 72. 59. 37. 57. 58. 68. 64.
      54. 71. 64. 59. 61. 52. 29. 54. 58. 54. 51. 52. 64. 70. 72. 40.
      41. 44. 48. 49. 47. 45. 49. 49. 49. 47. 57. 44. 47. 53. 51. 25.
      44. 27. 29. 59. 58. 44. 52. 53. 45. 74. 77. 43. 73. 46. 49. 39.
      50. 54. 77. 59. 57. 0. 0. 0. 0. 0. 0. 0. 0. 0. 0. 0. 0. 0. 0. 0.
      0. 0. 0. 0. 0. 0. 0. 0. 0. 0. 0. 0. 0. 0. 0. 0. 0. 0. 0. 0. 0. 0.
      0. 0. 0. 0. 0. 0. 0. 0. 0. 0. 0. 0. 0. 0. 0. 0. 0. 0. 0. 0. 0. 0.
      0. 0. 0. 0. 0. 100. 73. 64. 59. 68. 74. 103. 193. 171. 186. 187.
      188. 191. 60. 62. 57. 65. 67. 78. 67. 172. 94. 134. 126. 135. 125.
      102. 104. 76. 98. 132. 89. 118. 85. 82. 59. 90. 71. 81. 77. 70.
      63. 65. 69. 80. 160. 170. 165. 79. 73. 70. 74. 82. 70. 90. 152.
      129. 111. 115. 122. 123. 132. 100. 140. 129. 127. 140. 139. 160.
      111. 159. 125. 125. 99. 116. 107. 150. 155. 131. 116. 116. 108.
      122. 99. 137. 84. 67. 68. 179. 87. 80. 125. 140. 140. 88. 97. 85.
      84. 52. 69. 71. 79. 81. 90. 155. 162. 117. 95. 103. 81. 81. 97.
      75. 65. 72. 81. 75. 77. 82. 86. 104. 115. 89. 67. 74. 137. 152.
      170. 108. 69. 135. 79. 68. 98. 60. 93. 96. 108. 98. 109. 95. 59.
      68. 113. 96. 115. 100. 127. 73. 44. 92. 112. 114. 135. 124. 130.
      123. 70. 150. 160. 160. 159. 145. 137. 79. 115. 148. 152. 156.
      169. 146. 144. 145. 151. 140. 144. 128. 145. 103. 112. 106. 63.
      71. 78. 72. 93. 81. 73. 39. 95. 77. 59. 27. 35. 29. 58. 94. 61.
      62. 57. 74. 57. 60. 75. 74. 68. 71. 71. 70. 71. 75. 45. 71. 67.
      67. 39. 53. 48. 49. 46. 34. 68. 48. 47. 42. 44. 59. 21. 53. 55.
      37. 50. 45. 54. 64. 55. 38. 30. 82. 80. 63. 25. 45. 53. 53. 52.
      51. 49. 55. 81. 78. 82. 81. 74. 49. 48. 49. 48. 41. 47. 51. 50.
      51. 45. 46. 48. 43. 41. 51. 53. 37. 24. 44. 49. 50. 46. 49. 49.
      40. 36. 61. 58. 61. 32. 70. 26. 42. 37. 29. 38. 58. 57. 57. 64.
      57. 55. 54. 49. 45. 48. 48. 60. 45. 47. 48. 46. 66. 59. 57. 41.
      68. 69. 41. 39. 55. 55. 59. 70. 60. 52. 66. 75. 74. 73. 65. 27.
      53. 50. 42. 42. 39. 42. 46. 37. 41. 67. 76. 77. 51. 52. 40. 39.
      38. 41. 39. 43. 37. 41. 40. 36. 59. 50. 40. 39. 44. 35. 67. 59.
      32. 45. 47. 43. 42. 52. 58. 65. 33. 42. 44. 43. 51. 45. 48. 43.
      67. 52. 49. 62. 59. 61. 45. 53. 45. 47. 47. 48. 51. 49. 72. 59.
      37. 57. 58. 68. 64. 54. 71. 64. 59. 61. 52. 29. 54. 58. 54. 51.
      52. 64. 70. 72. 40. 41. 44. 48. 49. 47. 45. 49. 49. 49. 47. 57.
      44. 47. 53. 51. 25. 44. 27. 29. 59. 58. 44. 52. 53. 45. 74. 77.
      43. 73. 46. 49. 39. 50. 54. 77. 59. 57. 0. 0. 0. 0. 0. 0. 0. 0. 0.
      0. 0. 0. 0. 0. 0. 0. 0. 0. 0. 0. 0. 0. 0. 0. 0. 0. 0. 0. 0. 0. 0.
      0. 0. 0. 0. 0. 0. 0. 0. 0. 0. 0. 0. 0. 0. 0. 0. 0. 0. 0. 0. 0. 0.
      0. 0. 0. 0. 0. 0. 0. 0. 0. 0. 0.</_>
    <_>
      80. 83. 59. 85. 85. 86. 59. 46. 39. 50. 43. 49. 47. 83. 52. 47.
      57. 61. 47. 63. 62. 64. 61. 66. 39. 42. 59. 49. 44. 46. 40. 31.
      43. 44. 42. 40. 11. 25. 38. 30. 29. 37. 78. 103. 96. 78. 71. 78.
      76. 76. 71. 74. 63. 36. 37. 41. 57. 47. 38. 30. 28. 33. 35. 52.
      165. 164. 163. 163. 159. 165. 162. 161. 158. 129. 130. 120. 109.
      115. 106. 86. 141. 123. 128. 129. 157. 105. 138. 132. 148. 103.
      167. 152. 159. 157. 145. 149. 142. 65. 136. 148. 171. 161. 81. 76.
      54. 56. 58. 66. 90. 117. 143. 186. 51. 70. 66. 79. 88. 73. 81. 74.
      80. 80. 63. 74. 67. 70. 60. 63. 78. 77. 124. 122. 122. 106. 59.
      60. 114. 96. 69. 82. 83. 71. 67. 67. 63. 71. 84. 73. 82. 75. 69.
      63. 56. 58. 61. 57. 62. 63. 60. 81. 70. 65. 73. 100. 71. 84. 73.
      77. 93. 93. 83. 78. 75. 71. 88. 88. 79. 90. 88. 86. 77. 77. 79.
      86. 84. 86. 108. 113. 104. 114. 96. 111. 109. 96. 123. 94. 102.
      96. 80. 118. 116. 117. 123. 117. 83. 86. 89. 91. 94. 89. 94. 104.
      91. 91. 87. 93. 102. 97. 100. 86. 90. 99. 103. 83. 82. 77. 74. 81.
      80. 80. 84. 87. 88. 88. 81. 85. 86. 87. 86. 97. 62. 69. 83. 117.
      115. 111. 112. 116. 118. 101. 115. 110. 133. 120. 109. 136. 119.
      120. 137. 105. 123. 116. 99. 105. 88. 91. 98. 99. 119. 124. 118.
      118. 80. 114. 104. 118. 109. 108. 108. 100. 116. 126. 113. 114.
      98. 94. 117. 106. 121. 124. 108. 106. 95. 99. 96. 106. 90. 53.
      104. 69. 56. 56. 95. 81. 78. 104. 88. 86. 85. 78. 62. 110. 104.
      117. 75. 111. 113. 85. 85. 86. 100. 97. 102. 99. 99. 107. 103.
      103. 105. 104. 106. 110. 95. 103. 101. 100. 104. 93. 104. 95. 120.
      102. 100. 90. 96. 97. 98. 93. 104. 129. 136. 131. 125. 132. 96.
      81. 110. 101. 100. 102. 102. 104. 98. 111. 100. 101. 99. 105. 92.
      104. 103. 106. 119. 124. 120. 110. 114. 119. 125. 124. 130. 142.
      123. 103. 99. 105. 105. 102. 120. 106. 108. 110. 105. 112. 99.
      118. 124. 121. 116. 107. 113. 124. 128. 124. 115. 121. 121. 127.
      132. 128. 129. 135. 133. 132. 129. 133. 133. 95. 123. 112. 115.
      124. 122. 109. 114. 121. 108. 111. 116. 112. 149. 116. 110. 109.
      112. 119. 123. 113. 62. 59. 79. 76. 87. 96. 83. 87. 60. 106. 103.
      123. 77. 68. 91. 99. 105. 62. 148. 83. 94. 93. 97. 102. 102. 103.
      110. 113. 115. 115. 117. 118. 119. 121. 122. 125. 127. 129. 130.
      133. 135. 136. 138. 141. 142. 144. 145. 150. 152. 156. 156. 159.
      159. 159. 159. 161. 161. 162. 162. 162. 162. 164. 164. 165. 165.
      168. 168. 168. 167. 168. 168. 168. 168. 168. 80. 83. 59. 85. 85.
      86. 59. 46. 39. 50. 43. 49. 47. 83. 52. 47. 57. 61. 47. 63. 62.
      64. 61. 66. 39. 42. 59. 49. 44. 46. 40. 31. 43. 44. 42. 40. 11.
      25. 38. 30. 29. 37. 78. 103. 96. 78. 71. 78. 76. 76. 71. 74. 63.
      36. 37. 41. 57. 47. 38. 30. 28. 33. 35. 52. 165. 164. 163. 163.
      159. 165. 162. 161. 158. 129. 130. 120. 109. 115. 106. 86. 141.
      123. 128. 129. 157. 105. 138. 132. 148. 103. 167. 152. 159. 157.
      145. 149. 142. 65. 136. 148. 171. 161. 81. 76. 54. 56. 58. 66. 90.
      117. 143. 186. 51. 70. 66. 79. 88. 73. 81. 74. 80. 80. 63. 74. 67.
      70. 60. 63. 78. 77. 124. 122. 122. 106. 59. 60. 114. 96. 69. 82.
      83. 71. 67. 67. 63. 71. 84. 73. 82. 75. 69. 63. 56. 58. 61. 57.
      62. 63. 60. 81. 70. 65. 73. 100. 71. 84. 73. 77. 93. 93. 83. 78.
      75. 71. 88. 88. 79. 90. 88. 86. 77. 77. 79. 86. 84. 86. 108. 113.
      104. 114. 96. 111. 109. 96. 123. 94. 102. 96. 80. 118. 116. 117.
      123. 117. 83. 86. 89. 91. 94. 89. 94. 104. 91. 91. 87. 93. 102.
      97. 100. 86. 90. 99. 103. 83. 82. 77. 74. 81. 80. 80. 84. 87. 88.
      88. 81. 85. 86. 87. 86. 97. 62. 69. 83. 117. 115. 111. 112. 116.
      118. 101. 115. 110. 133. 120. 109. 136. 119. 120. 137. 105. 123.
      116. 99. 105. 88. 91. 98. 99. 119. 124. 118. 118. 80. 114. 104.
      118. 109. 108. 108. 100. 116. 126. 113. 114. 98. 94. 117. 106.
      121. 124. 108. 106. 95. 99. 96. 106. 90. 53. 104. 69. 56. 56. 95.
      81. 78. 104. 88. 86. 85. 78. 62. 110. 104. 117. 75. 111. 113. 85.
      85. 86. 100. 97. 102. 99. 99. 107. 103. 103. 105. 104. 106. 110.
      95. 103. 101. 100. 104. 93. 104. 95. 120. 102. 100. 90. 96. 97.
      98. 93. 104. 129. 136. 131. 125. 132. 96. 81. 110. 101. 100. 102.
      102. 104. 98. 111. 100. 101. 99. 105. 92. 104. 103. 106. 119. 124.
      120. 110. 114. 119. 125. 124. 130. 142. 123. 103. 99. 105. 105.
      102. 120. 106. 108. 110. 105. 112. 99. 118. 124. 121. 116. 107.
      113. 124. 128. 124. 115. 121. 121. 127. 132. 128. 129. 135. 133.
      132. 129. 133. 133. 95. 123. 112. 115. 124. 122. 109. 114. 121.
      108. 111. 116. 112. 149. 116. 110. 109. 112. 119. 123. 113. 62.
      59. 79. 76. 87. 96. 83. 87. 60. 106. 103. 123. 77. 68. 91. 99.
      105. 62. 148. 83. 94. 93. 97. 102. 102. 103. 110. 113. 115. 115.
      117. 118. 119. 121. 122. 125. 127. 129. 130. 133. 135. 136. 138.
      141. 142. 144. 145. 150. 152. 156. 156. 159. 159. 159. 159. 161.
      161. 162. 162. 162. 162. 164. 164. 165. 165. 168. 168. 168. 167.
      168. 168. 168. 168. 168.</_>
    <_>
      140. 142. 132. 143. 148. 139. 136. 141. 140. 148. 144. 149. 153.
      157. 147. 140. 139. 145. 150. 147. 143. 145. 149. 144. 146. 137.
      142. 149. 144. 151. 148. 150. 146. 144. 152. 144. 150. 143. 146.
      151. 152. 151. 148. 145. 150. 150. 146. 150. 149. 149. 146. 147.
      148. 149. 149. 151. 148. 153. 152. 147. 150. 148. 150. 147. 152.
      144. 151. 148. 151. 147. 147. 148. 149. 145. 152. 149. 148. 149.
      146. 150. 145. 144. 155. 145. 146. 148. 153. 144. 147. 149. 143.
      143. 141. 143. 144. 159. 154. 151. 149. 152. 151. 148. 152. 151.
      150. 147. 150. 147. 146. 151. 141. 149. 149. 148. 146. 147. 148.
      149. 147. 149. 152. 141. 147. 143. 145. 145. 140. 143. 141. 139.
      137. 137. 127. 134. 139. 134. 150. 167. 167. 168. 167. 162. 159.
      156. 148. 144. 145. 145. 146. 133. 138. 146. 147. 146. 152. 148.
      153. 149. 147. 145. 151. 149. 151. 155. 151. 142. 136. 135. 120.
      124. 140. 148. 149. 148. 143. 148. 149. 147. 144. 151. 147. 145.
      149. 148. 149. 152. 152. 144. 146. 140. 149. 149. 151. 137. 129.
      148. 144. 155. 156. 157. 154. 142. 139. 149. 146. 147. 141. 142.
      154. 139. 132. 138. 143. 146. 152. 146. 144. 143. 144. 142. 145.
      149. 142. 143. 141. 146. 145. 143. 146. 150. 145. 150. 150. 142.
      149. 143. 150. 140. 155. 148. 142. 138. 136. 134. 139. 149. 152.
      151. 151. 148. 152. 151. 153. 143. 149. 149. 145. 149. 142. 146.
      148. 147. 140. 146. 157. 154. 155. 146. 145. 144. 149. 146. 149.
      143. 148. 142. 135. 135. 129. 168. 117. 143. 127. 115. 147. 101.
      101. 122. 127. 109. 136. 151. 163. 147. 124. 125. 117. 112. 114.
      128. 166. 173. 146. 141. 131. 126. 131. 160. 150. 149. 130. 131.
      114. 145. 147. 117. 104. 103. 122. 141. 178. 142. 118. 107. 107.
      116. 107. 114. 155. 164. 136. 119. 123. 169. 116. 100. 88. 104.
      167. 148. 122. 105. 159. 148. 101. 130. 119. 120. 111. 108. 116.
      89. 109. 148. 168. 121. 135. 91. 135. 151. 142. 138. 115. 93. 168.
      164. 116. 125. 127. 111. 132. 166. 128. 125. 100. 109. 165. 147.
      134. 96. 79. 169. 156. 119. 89. 55. 176. 156. 113. 121. 173. 146.
      94. 169. 171. 150. 111. 95. 164. 135. 122. 101. 173. 124. 173.
      131. 115. 164. 176. 117. 126. 163. 161. 131. 138. 110. 181. 172.
      164. 142. 121. 182. 189. 170. 177. 163. 160. 142. 89. 191. 190.
      192. 186. 180. 172. 165. 157. 151. 171. 131. 189. 200. 192. 190.
      187. 185. 189. 184. 188. 179. 182. 183. 184. 182. 183. 174. 172.
      153. 139. 149. 160. 143. 156. 162. 169. 173. 177. 172. 157. 158.
      156. 153. 155. 158. 153. 160. 171. 179. 163. 159. 173. 158. 153.
      153. 141. 156. 164. 174. 182. 192. 175. 160. 180. 167. 142. 154.
      170. 188. 196. 190. 146. 170. 171. 161. 170. 169. 179. 157. 160.
      172. 182. 156. 140. 142. 132. 143. 148. 139. 136. 141. 140. 148.
      144. 149. 153. 157. 147. 140. 139. 145. 150. 147. 143. 145. 149.
      144. 146. 137. 142. 149. 144. 151. 148. 150. 146. 144. 152. 144.
      150. 143. 146. 151. 152. 151. 148. 145. 150. 150. 146. 150. 149.
      149. 146. 147. 148. 149. 149. 151. 148. 153. 152. 147. 150. 148.
      150. 147. 152. 144. 151. 148. 151. 147. 147. 148. 149. 145. 152.
      149. 148. 149. 146. 150. 145. 144. 155. 145. 146. 148. 153. 144.
      147. 149. 143. 143. 141. 143. 144. 159. 154. 151. 149. 152. 151.
      148. 152. 151. 150. 147. 150. 147. 146. 151. 141. 149. 149. 148.
      146. 147. 148. 149. 147. 149. 152. 141. 147. 143. 145. 145. 140.
      143. 141. 139. 137. 137. 127. 134. 139. 134. 150. 167. 167. 168.
      167. 162. 159. 156. 148. 144. 145. 145. 146. 133. 138. 146. 147.
      146. 152. 148. 153. 149. 147. 145. 151. 149. 151. 155. 151. 142.
      136. 135. 120. 124. 140. 148. 149. 148. 143. 148. 149. 147. 144.
      151. 147. 145. 149. 148. 149. 152. 152. 144. 146. 140. 149. 149.
      151. 137. 129. 148. 144. 155. 156. 157. 154. 142. 139. 149. 146.
      147. 141. 142. 154. 139. 132. 138. 143. 146. 152. 146. 144. 143.
      144. 142. 145. 149. 142. 143. 141. 146. 145. 143. 146. 150. 145.
      150. 150. 142. 149. 143. 150. 140. 155. 148. 142. 138. 136. 134.
      139. 149. 152. 151. 151. 148. 152. 151. 153. 143. 149. 149. 145.
      149. 142. 146. 148. 147. 140. 146. 157. 154. 155. 146. 145. 144.
      149. 146. 149. 143. 148. 142. 135. 135. 129. 168. 117. 143. 127.
      115. 147. 101. 101. 122. 127. 109. 136. 151. 163. 147. 124. 125.
      117. 112. 114. 128. 166. 173. 146. 141. 131. 126. 131. 160. 150.
      149. 130. 131. 114. 145. 147. 117. 104. 103. 122. 141. 178. 142.
      118. 107. 107. 116. 107. 114. 155. 164. 136. 119. 123. 169. 116.
      100. 88. 104. 167. 148. 122. 105. 159. 148. 101. 130. 119. 120.
      111. 108. 116. 89. 109. 148. 168. 121. 135. 91. 135. 151. 142.
      138. 115. 93. 168. 164. 116. 125. 127. 111. 132. 166. 128. 125.
      100. 109. 165. 147. 134. 96. 79. 169. 156. 119. 89. 55. 176. 156.
      113. 121. 173. 146. 94. 169. 171. 150. 111. 95. 164. 135. 122.
      101. 173. 124. 173. 131. 115. 164. 176. 117. 126. 163. 161. 131.
      138. 110. 181. 172. 164. 142. 121. 182. 189. 170. 177. 163. 160.
      142. 89. 191. 190. 192. 186. 180. 172. 165. 157. 151. 171. 131.
      189. 200. 192. 190. 187. 185. 189. 184. 188. 179. 182. 183. 184.
      182. 183. 174. 172. 153. 139. 149. 160. 143. 156. 162. 169. 173.
      177. 172. 157. 158. 156. 153. 155. 158. 153. 160. 171. 179. 163.
      159. 173. 158. 153. 153. 141. 156. 164. 174. 182. 192. 175. 160.
      180. 167. 142. 154. 170. 188. 196. 190. 146. 170. 171. 161. 170.
      169. 179. 157. 160. 172. 182. 156.</_>
    <_>
      0. 0. 0. 0. 0. 0. 0. 0. 0. 0. 0. 0. 0. 0. 0. 0. 0. 0. 0. 0. 0. 0.
      0. 0. 0. 0. 0. 0. 0. 0. 0. 0. 0. 0. 0. 0. 0. 0. 0. 0. 0. 0. 0. 0.
      0. 0. 0. 0. 0. 0. 0. 0. 0. 0. 0. 0. 0. 0. 0. 0. 0. 0. 0. 0. 0. 0.
      0. 0. 0. 0. 0. 0. 0. 0. 0. 0. 0. 0. 0. 0. 0. 0. 0. 0. 0. 0. 0. 0.
      0. 0. 0. 0. 0. 0. 0. 0. 0. 0. 0. 0. 0. 0. 0. 0. 0. 0. 0. 0. 0. 0.
      0. 0. 0. 0. 0. 0. 0. 0. 0. 0. 0. 0. 0. 0. 0. 0. 0. 0. 0. 0. 0. 0.
      0. 0. 0. 0. 0. 0. 0. 0. 0. 0. 0. 0. 0. 0. 0. 0. 0. 0. 0. 0. 0. 0.
      0. 0. 0. 0. 0. 0. 0. 0. 0. 0. 0. 0. 0. 0. 0. 0. 0. 0. 0. 0. 0. 0.
      0. 0. 0. 0. 0. 0. 0. 0. 0. 0. 0. 0. 0. 0. 0. 0. 0. 0. 0. 0. 0. 0.
      0. 0. 0. 0. 0. 0. 0. 0. 0. 0. 0. 0. 0. 0. 0. 0. 0. 0. 0. 0. 0. 0.
      0. 0. 0. 0. 0. 0. 0. 0. 0. 0. 0. 0. 0. 0. 0. 0. 0. 0. 0. 0. 0. 0.
      0. 0. 0. 0. 0. 0. 0. 0. 0. 0. 0. 0. 0. 0. 0. 0. 0. 0. 0. 0. 0. 0.
      0. 0. 0. 0. 0. 0. 0. 0. 0. 0. 0. 0. 0. 0. 0. 0. 0. 0. 0. 0. 0. 0.
      0. 0. 0. 0. 0. 0. 0. 0. 0. 0. 0. 0. 0. 0. 0. 0. 0. 0. 0. 0. 0. 0.
      0. 0. 0. 0. 0. 0. 0. 0. 0. 0. 0. 0. 147. 152. 151. 151. 151. 156.
      156. 158. 156. 155. 159. 160. 81. 37. 92. 128. 132. 125. 129. 44.
      56. 57. 102. 81. 86. 122. 142. 146. 96. 115. 101. 107. 104. 102.
      107. 118. 97. 113. 123. 126. 122. 131. 66. 86. 57. 76. 82. 113.
      98. 93. 74. 80. 131. 125. 122. 124. 118. 107. 57. 64. 61. 71. 56.
      59. 76. 75. 76. 73. 63. 94. 98. 104. 101. 88. 74. 79. 75. 89. 78.
      56. 68. 74. 49. 68. 73. 78. 65. 77. 107. 121. 115. 95. 88. 144.
      49. 128. 139. 136. 111. 115. 83. 53. 122. 122. 154. 136. 65. 76.
      71. 123. 175. 129. 147. 138. 129. 114. 116. 114. 114. 118. 112.
      87. 107. 126. 94. 99. 88. 88. 102. 103. 103. 103. 101. 93. 102.
      46. 49. 120. 104. 101. 92. 106. 114. 116. 95. 113. 116. 116. 121.
      120. 124. 124. 120. 125. 124. 115. 130. 131. 114. 90. 108. 121.
      95. 107. 106. 116. 102. 93. 118. 94. 103. 102. 140. 78. 105. 117.
      126. 130. 138. 138. 139. 144. 144. 146. 149. 141. 145. 151. 151.
      153. 154. 159. 0. 0. 0. 0. 0. 0. 0. 0. 0. 0. 0. 0. 0. 0. 0. 0. 0.
      0. 0. 0. 0. 0. 0. 0. 0. 0. 0. 0. 0. 0. 0. 0. 0. 0. 0. 0. 0. 0. 0.
      0. 0. 0. 0. 0. 0. 0. 0. 0. 0. 0. 0. 0. 0. 0. 0. 0. 0. 0. 0. 0. 0.
      0. 0. 0. 0. 0. 0. 0. 0. 0. 0. 0. 0. 0. 0. 0. 0. 0. 0. 0. 0. 0. 0.
      0. 0. 0. 0. 0. 0. 0. 0. 0. 0. 0. 0. 0. 0. 0. 0. 0. 0. 0. 0. 0. 0.
      0. 0. 0. 0. 0. 0. 0. 0. 0. 0. 0. 0. 0. 0. 0. 0. 0. 0. 0. 0. 0. 0.
      0. 0. 0. 0. 0. 0. 0. 0. 0. 0. 0. 0. 0. 0. 0. 0. 0. 0. 0. 0. 0. 0.
      0. 0. 0. 0. 0. 0. 0. 0. 0. 0. 0. 0. 0. 0. 0. 0. 0. 0. 0. 0. 0. 0.
      0. 0. 0. 0. 0. 0. 0. 0. 0. 0. 0. 0. 0. 0. 0. 0. 0. 0. 0. 0. 0. 0.
      0. 0. 0. 0. 0. 0. 0. 0. 0. 0. 0. 0. 0. 0. 0. 0. 0. 0. 0. 0. 0. 0.
      0. 0. 0. 0. 0. 0. 0. 0. 0. 0. 0. 0. 0. 0. 0. 0. 0. 0. 0. 0. 0. 0.
      0. 0. 0. 0. 0. 0. 0. 0. 0. 0. 0. 0. 0. 0. 0. 0. 0. 0. 0. 0. 0. 0.
      0. 0. 0. 0. 0. 0. 0. 0. 0. 0. 0. 0. 0. 0. 0. 0. 0. 0. 0. 0. 0. 0.
      0. 0. 0. 0. 0. 0. 0. 0. 0. 0. 0. 0. 0. 0. 0. 0. 0. 0. 0. 0. 0. 0.
      0. 0. 0. 0. 0. 0. 0. 0. 0. 0. 0. 0. 0. 0. 0. 0. 0. 147. 152. 151.
      151. 151. 156. 156. 158. 156. 155. 159. 160. 81. 37. 92. 128. 132.
      125. 129. 44. 56. 57. 102. 81. 86. 122. 142. 146. 96. 115. 101.
      107. 104. 102. 107. 118. 97. 113. 123. 126. 122. 131. 66. 86. 57.
      76. 82. 113. 98. 93. 74. 80. 131. 125. 122. 124. 118. 107. 57. 64.
      61. 71. 56. 59. 76. 75. 76. 73. 63. 94. 98. 104. 101. 88. 74. 79.
      75. 89. 78. 56. 68. 74. 49. 68. 73. 78. 65. 77. 107. 121. 115. 95.
      88. 144. 49. 128. 139. 136. 111. 115. 83. 53. 122. 122. 154. 136.
      65. 76. 71. 123. 175. 129. 147. 138. 129. 114. 116. 114. 114. 118.
      112. 87. 107. 126. 94. 99. 88. 88. 102. 103. 103. 103. 101. 93.
      102. 46. 49. 120. 104. 101. 92. 106. 114. 116. 95. 113. 116. 116.
      121. 120. 124. 124. 120. 125. 124. 115. 130. 131. 114. 90. 108.
      121. 95. 107. 106. 116. 102. 93. 118. 94. 103. 102. 140. 78. 105.
      117. 126. 130. 138. 138. 139. 144. 144. 146. 149. 141. 145. 151.
      151. 153. 154. 159.</_>
    <_>
      140. 104. 172. 164. 165. 142. 118. 66. 125. 156. 162. 142. 141.
      151. 163. 164. 146. 123. 154. 142. 150. 140. 31. 119. 117. 125.
      128. 123. 143. 150. 142. 132. 141. 153. 162. 154. 160. 154. 152.
      126. 139. 90. 170. 159. 172. 163. 113. 143. 144. 130. 125. 172.
      158. 155. 155. 157. 151. 108. 129. 149. 160. 160. 157. 149. 123.
      115. 140. 172. 147. 170. 160. 150. 158. 164. 147. 149. 163. 134.
      165. 136. 141. 108. 137. 129. 144. 164. 125. 105. 173. 124. 142.
      169. 159. 151. 154. 147. 158. 129. 121. 156. 158. 162. 154. 105.
      119. 133. 153. 160. 149. 136. 122. 113. 155. 129. 158. 118. 123.
      97. 137. 159. 108. 88. 103. 171. 167. 155. 165. 126. 167. 141.
      124. 152. 151. 146. 163. 166. 144. 158. 162. 156. 162. 156. 160.
      143. 110. 141. 100. 148. 141. 149. 152. 161. 160. 165. 155. 152.
      164. 157. 167. 147. 127. 111. 113. 128. 135. 132. 146. 140. 122.
      126. 133. 146. 135. 137. 130. 181. 175. 160. 144. 146. 150. 151.
      153. 129. 156. 163. 138. 118. 160. 161. 147. 133. 120. 139. 142.
      163. 144. 166. 151. 153. 164. 146. 112. 77. 124. 143. 147. 162.
      174. 167. 95. 109. 165. 174. 180. 156. 121. 123. 153. 141. 177.
      129. 153. 76. 147. 159. 159. 169. 154. 164. 164. 165. 168. 170.
      129. 164. 176. 155. 169. 173. 173. 157. 167. 178. 148. 72. 128.
      137. 158. 173. 147. 142. 147. 134. 142. 160. 137. 151. 128. 178.
      150. 153. 158. 171. 163. 145. 136. 139. 175. 150. 158. 100. 167.
      168. 156. 141. 158. 123. 162. 164. 155. 150. 155. 146. 156. 157.
      152. 136. 118. 156. 152. 152. 158. 151. 159. 156. 155. 158. 160.
      159. 159. 155. 168. 155. 169. 160. 135. 176. 162. 171. 184. 185.
      187. 185. 174. 171. 184. 176. 161. 193. 200. 93. 149. 187. 140.
      125. 155. 148. 180. 187. 186. 175. 164. 175. 174. 168. 165. 172.
      165. 161. 164. 164. 172. 163. 164. 162. 162. 164. 165. 165. 167.
      168. 168. 168. 167. 165. 164. 164. 165. 165. 165. 165. 165. 165.
      165. 165. 165. 165. 167. 168. 168. 168. 168. 165. 165. 167. 165.
      165. 165. 165. 165. 165. 165. 167. 168. 168. 165. 165. 165. 165.
      165. 165. 165. 167. 165. 165. 168. 168. 168. 171. 171. 171. 171.
      170. 168. 168. 168. 162. 156. 153. 150. 148. 152. 155. 153. 148.
      143. 148. 148. 145. 148. 148. 148. 144. 145. 151. 154. 163. 161.
      152. 133. 154. 151. 154. 151. 133. 121. 144. 154. 135. 132. 136.
      128. 136. 146. 153. 153. 152. 144. 148. 134. 110. 140. 136. 136.
      135. 143. 149. 155. 159. 142. 152. 113. 136. 143. 123. 149. 149.
      143. 151. 141. 162. 157. 142. 152. 151. 142. 146. 149. 148. 148.
      151. 150. 152. 156. 158. 163. 148. 152. 151. 144. 148. 145. 147.
      145. 146. 151. 152. 135. 121. 136. 135. 143. 145. 142. 142. 142.
      141. 132. 143. 146. 148. 140. 104. 172. 164. 165. 142. 118. 66.
      125. 156. 162. 142. 141. 151. 163. 164. 146. 123. 154. 142. 150.
      140. 31. 119. 117. 125. 128. 123. 143. 150. 142. 132. 141. 153.
      162. 154. 160. 154. 152. 126. 139. 90. 170. 159. 172. 163. 113.
      143. 144. 130. 125. 172. 158. 155. 155. 157. 151. 108. 129. 149.
      160. 160. 157. 149. 123. 115. 140. 172. 147. 170. 160. 150. 158.
      164. 147. 149. 163. 134. 165. 136. 141. 108. 137. 129. 144. 164.
      125. 105. 173. 124. 142. 169. 159. 151. 154. 147. 158. 129. 121.
      156. 158. 162. 154. 105. 119. 133. 153. 160. 149. 136. 122. 113.
      155. 129. 158. 118. 123. 97. 137. 159. 108. 88. 103. 171. 167.
      155. 165. 126. 167. 141. 124. 152. 151. 146. 163. 166. 144. 158.
      162. 156. 162. 156. 160. 143. 110. 141. 100. 148. 141. 149. 152.
      161. 160. 165. 155. 152. 164. 157. 167. 147. 127. 111. 113. 128.
      135. 132. 146. 140. 122. 126. 133. 146. 135. 137. 130. 181. 175.
      160. 144. 146. 150. 151. 153. 129. 156. 163. 138. 118. 160. 161.
      147. 133. 120. 139. 142. 163. 144. 166. 151. 153. 164. 146. 112.
      77. 124. 143. 147. 162. 174. 167. 95. 109. 165. 174. 180. 156.
      121. 123. 153. 141. 177. 129. 153. 76. 147. 159. 159. 169. 154.
      164. 164. 165. 168. 170. 129. 164. 176. 155. 169. 173. 173. 157.
      167. 178. 148. 72. 128. 137. 158. 173. 147. 142. 147. 134. 142.
      160. 137. 151. 128. 178. 150. 153. 158. 171. 163. 145. 136. 139.
      175. 150. 158. 100. 167. 168. 156. 141. 158. 123. 162. 164. 155.
      150. 155. 146. 156. 157. 152. 136. 118. 156. 152. 152. 158. 151.
      159. 156. 155. 158. 160. 159. 159. 155. 168. 155. 169. 160. 135.
      176. 162. 171. 184. 185. 187. 185. 174. 171. 184. 176. 161. 193.
      200. 93. 149. 187. 140. 125. 155. 148. 180. 187. 186. 175. 164.
      175. 174. 168. 165. 172. 165. 161. 164. 164. 172. 163. 164. 162.
      162. 164. 165. 165. 167. 168. 168. 168. 167. 165. 164. 164. 165.
      165. 165. 165. 165. 165. 165. 165. 165. 165. 167. 168. 168. 168.
      168. 165. 165. 167. 165. 165. 165. 165. 165. 165. 165. 167. 168.
      168. 165. 165. 165. 165. 165. 165. 165. 167. 165. 165. 168. 168.
      168. 171. 171. 171. 171. 170. 168. 168. 168. 162. 156. 153. 150.
      148. 152. 155. 153. 148. 143. 148. 148. 145. 148. 148. 148. 144.
      145. 151. 154. 163. 161. 152. 133. 154. 151. 154. 151. 133. 121.
      144. 154. 135. 132. 136. 128. 136. 146. 153. 153. 152. 144. 148.
      134. 110. 140. 136. 136. 135. 143. 149. 155. 159. 142. 152. 113.
      136. 143. 123. 149. 149. 143. 151. 141. 162. 157. 142. 152. 151.
      142. 146. 149. 148. 148. 151. 150. 152. 156. 158. 163. 148. 152.
      151. 144. 148. 145. 147. 145. 146. 151. 152. 135. 121. 136. 135.
      143. 145. 142. 142. 142. 141. 132. 143. 146. 148.</_>
    <_>
      179. 178. 176. 175. 175. 176. 176. 176. 178. 179. 179. 179. 178.
      178. 178. 178. 178. 179. 181. 181. 181. 181. 181. 181. 181. 182.
      182. 184. 185. 185. 184. 177. 174. 155. 150. 154. 170. 186. 183.
      197. 194. 190. 193. 191. 199. 197. 198. 194. 193. 193. 193. 191.
      191. 193. 169. 141. 195. 160. 165. 189. 150. 175. 132. 144. 186.
      177. 197. 198. 201. 204. 200. 198. 206. 168. 193. 162. 198. 186.
      170. 154. 177. 200. 180. 190. 205. 163. 176. 205. 206. 212. 171.
      184. 133. 202. 203. 185. 198. 214. 174. 191. 185. 181. 202. 179.
      189. 181. 199. 192. 192. 217. 211. 189. 161. 184. 191. 184. 190.
      200. 202. 202. 202. 202. 202. 202. 202. 202. 202. 202. 205. 205.
      205. 205. 205. 205. 202. 202. 202. 204. 205. 205. 205. 205. 205.
      205. 205. 205. 205. 205. 205. 205. 205. 205. 207. 207. 207. 207.
      207. 205. 204. 202. 199. 199. 198. 197. 196. 194. 193. 190. 186.
      183. 178. 175. 171. 170. 168. 165. 161. 155. 146. 136. 123. 115.
      108. 105. 104. 102. 99. 96. 93. 95. 130. 144. 109. 110. 107. 91.
      121. 92. 86. 99. 98. 95. 92. 91. 90. 82. 82. 70. 69. 70. 70. 66.
      62. 68. 67. 67. 67. 67. 67. 67. 67. 67. 67. 67. 48. 207. 218. 104.
      111. 82. 68. 68. 67. 64. 67. 67. 67. 67. 67. 67. 66. 67. 67. 71.
      59. 70. 63. 82. 60. 88. 53. 177. 90. 70. 77. 69. 78. 77. 72. 70.
      70. 69. 69. 69. 71. 50. 62. 60. 64. 64. 63. 70. 73. 73. 66. 78.
      74. 65. 56. 60. 62. 68. 73. 64. 67. 53. 56. 58. 69. 72. 55. 61.
      62. 46. 78. 68. 67. 42. 41. 56. 65. 66. 69. 65. 64. 59. 64. 55.
      66. 66. 68. 62. 66. 56. 39. 61. 59. 60. 71. 57. 61. 63. 51. 75.
      53. 84. 157. 131. 87. 112. 118. 168. 169. 180. 86. 77. 79. 84.
      125. 98. 116. 120. 117. 120. 111. 120. 105. 117. 94. 122. 116.
      129. 86. 102. 113. 107. 110. 110. 110. 98. 70. 38. 113. 108. 29.
      110. 110. 110. 100. 43. 42. 53. 39. 44. 37. 67. 102. 135. 65. 80.
      76. 86. 83. 69. 119. 182. 81. 71. 118. 78. 74. 83. 93. 65. 86. 80.
      67. 53. 162. 156. 155. 152. 152. 158. 164. 161. 159. 159. 169.
      145. 138. 147. 151. 149. 150. 147. 161. 111. 81. 84. 74. 73. 67.
      151. 172. 189. 163. 154. 156. 144. 71. 74. 80. 86. 162. 145. 143.
      150. 87. 87. 83. 84. 131. 145. 156. 155. 77. 77. 93. 195. 196.
      201. 202. 146. 148. 152. 147. 134. 131. 179. 185. 187. 188. 95.
      162. 163. 65. 68. 75. 73. 77. 70. 74. 116. 159. 155. 155. 153.
      151. 150. 137. 134. 139. 138. 140. 91. 78. 150. 147. 134. 144.
      143. 151. 148. 159. 164. 176. 96. 79. 86. 82. 82. 78. 82. 154.
      122. 161. 146. 174. 145. 138. 179. 179. 178. 176. 175. 175. 176.
      176. 176. 178. 179. 179. 179. 178. 178. 178. 178. 178. 179. 181.
      181. 181. 181. 181. 181. 181. 182. 182. 184. 185. 185. 184. 177.
      174. 155. 150. 154. 170. 186. 183. 197. 194. 190. 193. 191. 199.
      197. 198. 194. 193. 193. 193. 191. 191. 193. 169. 141. 195. 160.
      165. 189. 150. 175. 132. 144. 186. 177. 197. 198. 201. 204. 200.
      198. 206. 168. 193. 162. 198. 186. 170. 154. 177. 200. 180. 190.
      205. 163. 176. 205. 206. 212. 171. 184. 133. 202. 203. 185. 198.
      214. 174. 191. 185. 181. 202. 179. 189. 181. 199. 192. 192. 217.
      211. 189. 161. 184. 191. 184. 190. 200. 202. 202. 202. 202. 202.
      202. 202. 202. 202. 202. 205. 205. 205. 205. 205. 205. 202. 202.
      202. 204. 205. 205. 205. 205. 205. 205. 205. 205. 205. 205. 205.
      205. 205. 205. 207. 207. 207. 207. 207. 205. 204. 202. 199. 199.
      198. 197. 196. 194. 193. 190. 186. 183. 178. 175. 171. 170. 168.
      165. 161. 155. 146. 136. 123. 115. 108. 105. 104. 102. 99. 96. 93.
      95. 130. 144. 109. 110. 107. 91. 121. 92. 86. 99. 98. 95. 92. 91.
      90. 82. 82. 70. 69. 70. 70. 66. 62. 68. 67. 67. 67. 67. 67. 67.
      67. 67. 67. 67. 48. 207. 218. 104. 111. 82. 68. 68. 67. 64. 67.
      67. 67. 67. 67. 67. 66. 67. 67. 71. 59. 70. 63. 82. 60. 88. 53.
      177. 90. 70. 77. 69. 78. 77. 72. 70. 70. 69. 69. 69. 71. 50. 62.
      60. 64. 64. 63. 70. 73. 73. 66. 78. 74. 65. 56. 60. 62. 68. 73.
      64. 67. 53. 56. 58. 69. 72. 55. 61. 62. 46. 78. 68. 67. 42. 41.
      56. 65. 66. 69. 65. 64. 59. 64. 55. 66. 66. 68. 62. 66. 56. 39.
      61. 59. 60. 71. 57. 61. 63. 51. 75. 53. 84. 157. 131. 87. 112.
      118. 168. 169. 180. 86. 77. 79. 84. 125. 98. 116. 120. 117. 120.
      111. 120. 105. 117. 94. 122. 116. 129. 86. 102. 113. 107. 110.
      110. 110. 98. 70. 38. 113. 108. 29. 110. 110. 110. 100. 43. 42.
      53. 39. 44. 37. 67. 102. 135. 65. 80. 76. 86. 83. 69. 119. 182.
      81. 71. 118. 78. 74. 83. 93. 65. 86. 80. 67. 53. 162. 156. 155.
      152. 152. 158. 164. 161. 159. 159. 169. 145. 138. 147. 151. 149.
      150. 147. 161. 111. 81. 84. 74. 73. 67. 151. 172. 189. 163. 154.
      156. 144. 71. 74. 80. 86. 162. 145. 143. 150. 87. 87. 83. 84. 131.
      145. 156. 155. 77. 77. 93. 195. 196. 201. 202. 146. 148. 152. 147.
      134. 131. 179. 185. 187. 188. 95. 162. 163. 65. 68. 75. 73. 77.
      70. 74. 116. 159. 155. 155. 153. 151. 150. 137. 134. 139. 138.
      140. 91. 78. 150. 147. 134. 144. 143. 151. 148. 159. 164. 176. 96.
      79. 86. 82. 82. 78. 82. 154. 122. 161. 146. 174. 145. 138. 179.</_>
    <_>
      205. 205. 202. 202. 199. 199. 198. 197. 197. 197. 197. 196. 194.
      193. 193. 191. 191. 191. 191. 191. 190. 190. 188. 187. 188. 188.
      188. 185. 185. 184. 182. 182. 182. 181. 179. 179. 178. 178. 179.
      179. 178. 178. 181. 181. 181. 184. 184. 184. 185. 185. 185. 185.
      185. 185. 185. 185. 185. 184. 182. 182. 182. 181. 181. 181. 179.
      176. 174. 171. 171. 168. 165. 162. 158. 154. 151. 146. 141. 183.
      176. 166. 147. 152. 137. 150. 125. 125. 126. 112. 108. 99. 93. 44.
      225. 142. 143. 55. 72. 91. 116. 108. 113. 78. 123. 131. 141. 180.
      143. 101. 58. 107. 138. 101. 91. 89. 89. 89. 104. 94. 109. 93. 80.
      79. 81. 88. 77. 113. 112. 157. 191. 161. 181. 152. 172. 179. 220.
      113. 216. 70. 51. 66. 135. 130. 142. 110. 71. 113. 112. 125. 65.
      59. 41. 108. 79. 60. 55. 44. 24. 92. 155. 107. 75. 66. 121. 169.
      170. 48. 58. 64. 111. 73. 136. 164. 117. 92. 51. 127. 123. 114.
      115. 96. 97. 95. 92. 140. 149. 152. 97. 75. 79. 75. 77. 83. 48.
      39. 60. 78. 74. 44. 46. 46. 42. 42. 40. 40. 45. 43. 48. 68. 90.
      84. 57. 61. 63. 63. 56. 65. 54. 48. 43. 57. 56. 66. 69. 59. 62.
      80. 47. 41. 39. 34. 29. 28. 22. 23. 43. 25. 90. 97. 66. 64. 70.
      68. 73. 71. 57. 66. 54. 67. 60. 68. 67. 46. 49. 67. 9. 27. 73. 72.
      70. 34. 54. 67. 75. 58. 86. 62. 80. 47. 35. 54. 59. 47. 40. 44.
      45. 62. 66. 77. 38. 41. 56. 91. 73. 66. 71. 79. 75. 74. 73. 67.
      51. 51. 51. 43. 48. 74. 77. 72. 67. 58. 54. 53. 57. 53. 49. 54.
      38. 56. 48. 15. 35. 74. 35. 64. 12. 57. 43. 51. 60. 70. 119. 130.
      143. 156. 143. 86. 150. 162. 127. 183. 182. 182. 192. 118. 117.
      119. 145. 138. 142. 131. 133. 127. 137. 144. 138. 123. 148. 123.
      141. 112. 120. 112. 79. 79. 83. 141. 137. 142. 160. 109. 106. 102.
      89. 97. 93. 93. 108. 105. 102. 107. 110. 99. 105. 115. 118. 136.
      158. 96. 138. 138. 136. 112. 112. 115. 119. 111. 113. 99. 79. 91.
      157. 136. 136. 105. 129. 116. 134. 82. 108. 96. 63. 114. 111. 111.
      192. 198. 199. 173. 125. 146. 134. 101. 100. 105. 102. 102. 110.
      116. 102. 119. 114. 147. 157. 152. 104. 138. 143. 121. 100. 111.
      111. 92. 97. 138. 47. 51. 60. 63. 102. 116. 109. 98. 79. 91. 99.
      115. 109. 93. 145. 88. 85. 81. 89. 118. 86. 109. 84. 84. 70. 71.
      102. 60. 133. 126. 117. 119. 118. 104. 119. 139. 79. 123. 127.
      132. 114. 117. 129. 118. 56. 103. 83. 69. 96. 92. 91. 93. 118. 84.
      97. 95. 104. 103. 107. 116. 151. 89. 103. 134. 109. 121. 102. 83.
      132. 115. 118. 168. 181. 175. 173. 152. 152. 148. 205. 205. 202.
      202. 199. 199. 198. 197. 197. 197. 197. 196. 194. 193. 193. 191.
      191. 191. 191. 191. 190. 190. 188. 187. 188. 188. 188. 185. 185.
      184. 182. 182. 182. 181. 179. 179. 178. 178. 179. 179. 178. 178.
      181. 181. 181. 184. 184. 184. 185. 185. 185. 185. 185. 185. 185.
      185. 185. 184. 182. 182. 182. 181. 181. 181. 179. 176. 174. 171.
      171. 168. 165. 162. 158. 154. 151. 146. 141. 183. 176. 166. 147.
      152. 137. 150. 125. 125. 126. 112. 108. 99. 93. 44. 225. 142. 143.
      55. 72. 91. 116. 108. 113. 78. 123. 131. 141. 180. 143. 101. 58.
      107. 138. 101. 91. 89. 89. 89. 104. 94. 109. 93. 80. 79. 81. 88.
      77. 113. 112. 157. 191. 161. 181. 152. 172. 179. 220. 113. 216.
      70. 51. 66. 135. 130. 142. 110. 71. 113. 112. 125. 65. 59. 41.
      108. 79. 60. 55. 44. 24. 92. 155. 107. 75. 66. 121. 169. 170. 48.
      58. 64. 111. 73. 136. 164. 117. 92. 51. 127. 123. 114. 115. 96.
      97. 95. 92. 140. 149. 152. 97. 75. 79. 75. 77. 83. 48. 39. 60. 78.
      74. 44. 46. 46. 42. 42. 40. 40. 45. 43. 48. 68. 90. 84. 57. 61.
      63. 63. 56. 65. 54. 48. 43. 57. 56. 66. 69. 59. 62. 80. 47. 41.
      39. 34. 29. 28. 22. 23. 43. 25. 90. 97. 66. 64. 70. 68. 73. 71.
      57. 66. 54. 67. 60. 68. 67. 46. 49. 67. 9. 27. 73. 72. 70. 34. 54.
      67. 75. 58. 86. 62. 80. 47. 35. 54. 59. 47. 40. 44. 45. 62. 66.
      77. 38. 41. 56. 91. 73. 66. 71. 79. 75. 74. 73. 67. 51. 51. 51.
      43. 48. 74. 77. 72. 67. 58. 54. 53. 57. 53. 49. 54. 38. 56. 48.
      15. 35. 74. 35. 64. 12. 57. 43. 51. 60. 70. 119. 130. 143. 156.
      143. 86. 150. 162. 127. 183. 182. 182. 192. 118. 117. 119. 145.
      138. 142. 131. 133. 127. 137. 144. 138. 123. 148. 123. 141. 112.
      120. 112. 79. 79. 83. 141. 137. 142. 160. 109. 106. 102. 89. 97.
      93. 93. 108. 105. 102. 107. 110. 99. 105. 115. 118. 136. 158. 96.
      138. 138. 136. 112. 112. 115. 119. 111. 113. 99. 79. 91. 157. 136.
      136. 105. 129. 116. 134. 82. 108. 96. 63. 114. 111. 111. 192. 198.
      199. 173. 125. 146. 134. 101. 100. 105. 102. 102. 110. 116. 102.
      119. 114. 147. 157. 152. 104. 138. 143. 121. 100. 111. 111. 92.
      97. 138. 47. 51. 60. 63. 102. 116. 109. 98. 79. 91. 99. 115. 109.
      93. 145. 88. 85. 81. 89. 118. 86. 109. 84. 84. 70. 71. 102. 60.
      133. 126. 117. 119. 118. 104. 119. 139. 79. 123. 127. 132. 114.
      117. 129. 118. 56. 103. 83. 69. 96. 92. 91. 93. 118. 84. 97. 95.
      104. 103. 107. 116. 151. 89. 103. 134. 109. 121. 102. 83. 132.
      115. 118. 168. 181. 175. 173. 152. 152. 148.</_>
    <_>
      149. 138. 146. 154. 145. 154. 152. 149. 144. 153. 152. 134. 147.
      149. 139. 145. 155. 150. 153. 152. 155. 153. 136. 142. 155. 158.
      147. 155. 154. 144. 145. 147. 142. 147. 149. 157. 146. 138. 148.
      143. 152. 153. 152. 150. 151. 149. 158. 155. 151. 151. 151. 149.
      150. 151. 152. 148. 150. 148. 152. 158. 145. 160. 147. 153. 156.
      156. 159. 146. 147. 150. 144. 151. 151. 138. 132. 149. 148. 151.
      149. 147. 149. 150. 157. 152. 139. 144. 136. 150. 156. 153. 148.
      154. 160. 154. 154. 156. 146. 149. 147. 148. 143. 143. 148. 153.
      152. 143. 150. 155. 154. 150. 155. 141. 153. 154. 140. 149. 144.
      149. 151. 140. 120. 134. 160. 75. 169. 154. 150. 152. 143. 146.
      110. 163. 132. 137. 142. 147. 135. 158. 147. 151. 131. 158. 149.
      145. 122. 22. 171. 155. 163. 115. 140. 141. 158. 159. 149. 133.
      153. 129. 149. 72. 143. 149. 152. 149. 132. 133. 161. 153. 152.
      145. 148. 150. 144. 153. 138. 138. 147. 146. 139. 150. 146. 149.
      138. 132. 152. 146. 150. 146. 142. 152. 153. 151. 151. 151. 151.
      151. 150. 150. 151. 151. 151. 151. 151. 151. 149. 150. 151. 151.
      151. 150. 149. 150. 151. 151. 151. 150. 151. 150. 151. 151. 152.
      151. 152. 151. 151. 154. 153. 154. 157. 147. 147. 150. 149. 151.
      156. 138. 115. 165. 158. 154. 145. 106. 166. 165. 153. 140. 170.
      157. 126. 105. 35. 172. 140. 134. 150. 161. 140. 41. 177. 146.
      141. 145. 149. 101. 84. 137. 185. 169. 171. 158. 172. 167. 158.
